\data\
ngram 1=44
ngram 2=1712
ngram 3=4954

\1-grams:
-0.8758	<s>	-0.5000
-0.8758	</s>	-0.5000
-1.6883	sen	-0.5000
-1.6968	iyi	-0.5000
-1.6968	yarın	-0.5000
-1.6997	zaman	-0.5000
-1.7115	sekiz	-0.5000
-1.7205	üç	-0.5000
-1.7235	iki	-0.5000
-1.7297	git	-0.5000
-1.7328	yok	-0.5000
-1.7359	dört	-0.5000
-1.7359	altı	-0.5000
-1.7359	günaydın	-0.5000
-1.7391	ekmek	-0.5000
-1.7391	hayır	-0.5000
-1.7423	ne	-0.5000
-1.7455	var	-0.5000
-1.7487	su	-0.5000
-1.7487	merhaba	-0.5000
-1.7520	bir	-0.5000
-1.7520	lütfen	-0.5000
-1.7552	teşekkürler	-0.5000
-1.7552	biz	-0.5000
-1.7585	başla	-0.5000
-1.7585	ben	-0.5000
-1.7619	kal	-0.5000
-1.7619	hoşça	-0.5000
-1.7686	siz	-0.5000
-1.7686	yardım	-0.5000
-1.7720	yedi	-0.5000
-1.7754	bugün	-0.5000
-1.7754	evet	-0.5000
-1.7754	gün	-0.5000
-1.7789	çay	-0.5000
-1.7895	beş	-0.5000
-1.7895	tamam	-0.5000
-1.7966	kahve	-0.5000
-1.7966	durdur	-0.5000
-1.8114	nerede	-0.5000
-1.8227	peki	-0.5000
-1.8344	nasılsın	-0.5000
-1.8384	akşamlar	-0.5000
-1.8758	gel	-0.5000

\2-grams:
-1.5012	<s> sen	-0.5000
-1.5167	<s> gün	-0.5000
-0.6794	su </s>	-0.5000
-0.6769	bir </s>	-0.5000
-1.5166	<s> yardım	-0.5000
-0.6831	başla </s>	-0.5000
-0.7336	iyi </s>	-0.5000
-1.5293	<s> üç	-0.5000
-0.7397	sen </s>	-0.5000
-0.7275	üç </s>	-0.5000
-0.6729	tamam </s>	-0.5000
-0.7128	teşekkürler </s>	-0.5000
-0.7325	git </s>	-0.5000
-1.5593	<s> bir	-0.5000
-1.5589	<s> altı	-0.5000
-1.5595	<s> başla	-0.5000
-0.7560	zaman </s>	-0.5000
-0.6991	yedi </s>	-0.5000
-1.5590	<s> hayır	-0.5000
-1.5751	<s> siz	-0.5000
-0.7342	var </s>	-0.5000
-0.7097	evet </s>	-0.5000
-1.5731	<s> iyi	-0.5000
-1.5909	<s> kal	-0.5000
-0.7242	gün </s>	-0.5000
-1.5925	<s> peki	-0.5000
-1.5901	<s> yok	-0.5000
-1.5907	<s> biz	-0.5000
-0.7447	merhaba </s>	-0.5000
-1.5903	<s> ekmek	-0.5000
-1.5902	<s> günaydın	-0.5000
-1.5906	<s> lütfen	-0.5000
-0.7647	iki </s>	-0.5000
-1.6084	<s> kahve	-0.5000
-1.6084	<s> durdur	-0.5000
-1.6071	<s> merhaba	-0.5000
-0.7864	sekiz </s>	-0.5000
-1.6067	<s> dört	-0.5000
-1.6064	<s> iki	-0.5000
-0.7489	çay </s>	-0.5000
-1.6251	<s> bugün	-0.5000
-0.8144	yarın </s>	-0.5000
-0.7638	kal </s>	-0.5000
-0.7856	yok </s>	-0.5000
-0.7778	ne </s>	-0.5000
-0.7778	hoşça </s>	-0.5000
-0.7737	siz </s>	-0.5000
-1.6405	<s> yarın	-0.5000
-0.7674	bugün </s>	-0.5000
-0.7987	dört </s>	-0.5000
-1.6447	<s> nasılsın	-0.5000
-1.6613	<s> hoşça	-0.5000
-0.7986	biz </s>	-0.5000
-0.7342	akşamlar </s>	-0.5000
-1.6611	<s> teşekkürler	-0.5000
-0.7676	durdur </s>	-0.5000
-0.8279	ekmek </s>	-0.5000
-1.6818	<s> beş	-0.5000
-0.7557	nasılsın </s>	-0.5000
-1.6812	<s> yedi	-0.5000
-1.6804	<s> su	-0.5000
-1.6818	<s> tamam	-0.5000
-0.8308	altı </s>	-0.5000
-1.6802	<s> ne	-0.5000
-0.7401	gel </s>	-0.5000
-0.7891	nerede </s>	-0.5000
-1.7002	<s> git	-0.5000
-0.8443	hayır </s>	-0.5000
-1.7018	<s> evet	-0.5000
-1.7245	<s> nerede	-0.5000
-1.7208	<s> sekiz	-0.5000
-1.7222	<s> var	-0.5000
-1.7204	<s> zaman	-0.5000
-0.8399	yardım </s>	-0.5000
-1.7227	<s> ben	-0.5000
-1.7493	<s> gel	-0.5000
-0.8653	ben </s>	-0.5000
-0.8702	lütfen </s>	-0.5000
-1.7699	<s> çay	-0.5000
-0.8354	peki </s>	-0.5000
-0.8551	kahve </s>	-0.5000
-0.8807	beş </s>	-0.5000
-0.9420	günaydın </s>	-0.5000
-1.8532	<s> akşamlar	-0.5000
-1.2486	teşekkürler teşekkürler	-0.5000
-1.3002	sen var	-0.5000
-1.2866	zaman sen	-0.5000
-1.3444	iyi bugün	-0.5000
-1.3080	hayır yedi	-0.5000
-1.2620	kahve yedi	-0.5000
-1.3104	günaydın yok	-0.5000
-1.2907	yardım biz	-0.5000
-1.3425	iyi lütfen	-0.5000
-1.2901	hoşça siz	-0.5000
-1.3738	sekiz zaman	-0.5000
-1.3897	zaman git	-0.5000
-1.3680	yok bugün	-0.5000
-1.3997	sen ekmek	-0.5000
-1.3435	teşekkürler zaman	-0.5000
-1.4056	iyi gel	-0.5000
-1.3963	yarın su	-0.5000
-1.3611	altı sen	-0.5000
-1.2779	akşamlar iki	-0.5000
-1.3312	yedi üç	-0.5000
-1.3452	hoşça beş	-0.5000
-1.3933	zaman yardım	-0.5000
-1.3753	üç dört	-0.5000
-1.3514	lütfen biz	-0.5000
-1.3468	biz su	-0.5000
-1.3270	çay su	-0.5000
-1.3979	sen üç	-0.5000
-1.3788	sekiz biz	-0.5000
-1.3655	günaydın ben	-0.5000
-1.3578	hayır yok	-0.5000
-1.3570	ekmek iyi	-0.5000
-1.3668	git dört	-0.5000
-1.3683	günaydın tamam	-0.5000
-1.3988	yarın evet	-0.5000
-1.3665	yok başla	-0.5000
-1.3683	git lütfen	-0.5000
-1.3505	bir hoşça	-0.5000
-1.4615	sen teşekkürler	-0.5000
-1.4256	git iki	-0.5000
-1.4116	su ne	-0.5000
-1.3944	bugün gün	-0.5000
-1.4056	kal teşekkürler	-0.5000
-1.4550	sen iyi	-0.5000
-1.4125	lütfen hoşça	-0.5000
-1.4325	üç sekiz	-0.5000
-1.4026	siz evet	-0.5000
-1.4077	ben ekmek	-0.5000
-1.3478	nasılsın altı	-0.5000
-1.4248	ekmek yedi	-0.5000
-1.4339	altı nerede	-0.5000
-1.3530	peki dört	-0.5000
-1.4202	var bugün	-0.5000
-1.4070	lütfen sekiz	-0.5000
-1.3974	yedi çay	-0.5000
-1.4213	ekmek ekmek	-0.5000
-1.4017	teşekkürler sen	-0.5000
-1.4654	yarın akşamlar	-0.5000
-1.3887	evet üç	-0.5000
-1.4329	iki altı	-0.5000
-1.4249	yok hayır	-0.5000
-1.4380	sekiz hayır	-0.5000
-1.4053	lütfen iyi	-0.5000
-1.4063	kal hoşça	-0.5000
-1.4273	git ekmek	-0.5000
-1.4259	yok su	-0.5000
-1.4399	sekiz ben	-0.5000
-1.3904	evet dört	-0.5000
-1.4163	su tamam	-0.5000
-1.4072	teşekkürler günaydın	-0.5000
-1.4333	iki hayır	-0.5000
-1.4542	yarın git	-0.5000
-1.3767	kahve evet	-0.5000
-1.4119	ne zaman	-0.5000
-1.4035	kal günaydın	-0.5000
-1.3930	evet hoşça	-0.5000
-1.4326	sekiz sen	-0.5000
-1.4106	su yok	-0.5000
-1.4279	dört çay	-0.5000
-1.3831	tamam yardım	-0.5000
-1.4129	merhaba ne	-0.5000
-1.4524	iyi iki	-0.5000
-1.4183	ne ben	-0.5000
-1.4628	yarın nerede	-0.5000
-1.4084	ben var	-0.5000
-1.3990	kal yarın	-0.5000
-1.4041	hoşça yardım	-0.5000
-1.4502	yarın iyi	-0.5000
-1.4001	hoşça git	-0.5000
-1.3997	yardım iki	-0.5000
-1.5045	üç yok	-0.5000
-1.4891	yok iyi	-0.5000
-1.4727	hoşça bir	-0.5000
-1.4836	bir çay	-0.5000
-1.4972	altı bir	-0.5000
-1.4747	su sen	-0.5000
-1.4662	yedi kal	-0.5000
-1.4627	bugün biz	-0.5000
-1.4768	bir iki	-0.5000
-1.5213	iyi üç	-0.5000
-1.4696	siz su	-0.5000
-1.4580	çay merhaba	-0.5000
-1.4745	başla biz	-0.5000
-1.4852	hayır sekiz	-0.5000
-1.5004	günaydın kahve	-0.5000
-1.5313	sen bir	-0.5000
-1.4545	tamam gün	-0.5000
-1.4911	yok sekiz	-0.5000
-1.4624	gün ne	-0.5000
-1.4861	ben nerede	-0.5000
-1.4803	var iyi	-0.5000
-1.5206	zaman hayır	-0.5000
-1.4963	altı var	-0.5000
-1.4662	yedi hoşça	-0.5000
-1.4979	dört gün	-0.5000
-1.4714	başla git	-0.5000
-1.5130	iki peki	-0.5000
-1.4922	ekmek merhaba	-0.5000
-1.4823	teşekkürler çay	-0.5000
-1.4837	hayır zaman	-0.5000
-1.4648	yardım iyi	-0.5000
-1.4408	durdur zaman	-0.5000
-1.4509	beş var	-0.5000
-1.4852	kal akşamlar	-0.5000
-1.5176	yarın sen	-0.5000
-1.4525	beş başla	-0.5000
-1.4468	kahve siz	-0.5000
-1.4910	var çay	-0.5000
-1.4972	hayır nerede	-0.5000
-1.5142	iki nasılsın	-0.5000
-1.4921	dört git	-0.5000
-1.4872	ekmek sekiz	-0.5000
-1.5046	dört nasılsın	-0.5000
-1.4521	beş teşekkürler	-0.5000
-1.4488	durdur kal	-0.5000
-1.4643	evet siz	-0.5000
-1.4456	durdur dört	-0.5000
-1.4975	ne akşamlar	-0.5000
-1.4082	akşamlar üç	-0.5000
-1.5124	üç durdur	-0.5000
-1.4691	bugün nerede	-0.5000
-1.5346	sen çay	-0.5000
-1.4734	ben sekiz	-0.5000
-1.4383	kahve zaman	-0.5000
-1.4797	ben ben	-0.5000
-1.4859	ne altı	-0.5000
-1.4849	merhaba başla	-0.5000
-1.4768	başla evet	-0.5000
-1.4864	dört sen	-0.5000
-1.4778	su sekiz	-0.5000
-1.5150	sekiz kahve	-0.5000
-1.4996	git başla	-0.5000
-1.4493	tamam yok	-0.5000
-1.4996	üç yarın	-0.5000
-1.4916	altı sekiz	-0.5000
-1.5074	sekiz git	-0.5000
-1.4910	lütfen nasılsın	-0.5000
-1.4753	bir sekiz	-0.5000
-1.5066	sekiz iki	-0.5000
-1.4799	lütfen ekmek	-0.5000
-1.4172	nasılsın yok	-0.5000
-1.4128	nasılsın zaman	-0.5000
-1.4260	peki başla	-0.5000
-1.4751	ben iki	-0.5000
-1.3843	gel bir	-0.5000
-1.4497	tamam dört	-0.5000
-1.4918	ekmek var	-0.5000
-1.5017	iki git	-0.5000
-1.4873	var su	-0.5000
-1.4324	nerede git	-0.5000
-1.5219	zaman merhaba	-0.5000
-1.4932	hayır gün	-0.5000
-1.4876	günaydın iyi	-0.5000
-1.5219	zaman su	-0.5000
-1.4813	su hayır	-0.5000
-1.5247	yarın ekmek	-0.5000
-1.4688	siz ne	-0.5000
-1.5358	sen tamam	-0.5000
-1.4867	ne ne	-0.5000
-1.4808	ne yarın	-0.5000
-1.5002	altı gün	-0.5000
-1.4749	başla ben	-0.5000
-1.4892	hayır ne	-0.5000
-1.4372	nerede yardım	-0.5000
-1.4930	dört dört	-0.5000
-1.5309	sen merhaba	-0.5000
-1.4404	nerede kahve	-0.5000
-1.5078	sekiz yok	-0.5000
-1.4930	dört günaydın	-0.5000
-1.4675	evet kahve	-0.5000
-1.4759	biz altı	-0.5000
-1.4884	hayır altı	-0.5000
-1.5169	iyi sen	-0.5000
-1.4746	yardım yardım	-0.5000
-1.4672	başla yarın	-0.5000
-1.4921	günaydın git	-0.5000
-1.4647	siz sekiz	-0.5000
-1.4807	hoşça peki	-0.5000
-1.4628	gün var	-0.5000
-1.4240	peki ne	-0.5000
-1.4887	ne başla	-0.5000
-1.4718	teşekkürler iyi	-0.5000
-1.5017	yok durdur	-0.5000
-1.5518	biz sen	-0.5000
-1.5305	kahve kal	-0.5000
-1.5610	kal siz	-0.5000
-1.5484	siz üç	-0.5000
-1.5472	bugün başla	-0.5000
-1.5201	nerede ben	-0.5000
-1.5594	ben dört	-0.5000
-1.5800	yok bir	-0.5000
-1.5634	bir var	-0.5000
-1.5675	var git	-0.5000
-1.5935	iki beş	-0.5000
-1.5458	bugün su	-0.5000
-1.5465	yardım zaman	-0.5000
-1.5575	kal var	-0.5000
-1.5895	iki hoşça	-0.5000
-1.5267	kahve dört	-0.5000
-1.5819	dört bugün	-0.5000
-1.5657	merhaba hayır	-0.5000
-1.5652	biz bugün	-0.5000
-1.5463	bugün lütfen	-0.5000
-1.5377	bugün yarın	-0.5000
-1.5438	gün git	-0.5000
-1.5769	ekmek başla	-0.5000
-1.5635	ben hoşça	-0.5000
-1.5906	dört akşamlar	-0.5000
-1.5819	günaydın gün	-0.5000
-1.5880	iki lütfen	-0.5000
-1.6025	üç akşamlar	-0.5000
-1.5776	yok altı	-0.5000
-1.5459	çay gün	-0.5000
-1.5535	kal üç	-0.5000
-1.5468	beş nasılsın	-0.5000
-1.5028	nasılsın merhaba	-0.5000
-1.5448	evet ne	-0.5000
-1.5747	ne yedi	-0.5000
-1.5427	yedi sekiz	-0.5000
-1.5094	peki lütfen	-0.5000
-1.5757	hayır kal	-0.5000
-1.5575	merhaba sen	-0.5000
-1.6144	iyi beş	-0.5000
-1.5409	beş tamam	-0.5000
-1.5445	siz yarın	-0.5000
-1.6105	yarın ben	-0.5000
-1.5739	ben nasılsın	-0.5000
-1.4941	akşamlar dört	-0.5000
-1.6064	zaman teşekkürler	-0.5000
-1.5430	siz sen	-0.5000
-1.5959	üç tamam	-0.5000
-1.5624	bir ekmek	-0.5000
-1.5835	yok gün	-0.5000
-1.4697	gel ben	-0.5000
-1.5274	nerede nerede	-0.5000
-1.5834	git ben	-0.5000
-1.5819	git merhaba	-0.5000
-1.5403	çay günaydın	-0.5000
-1.5921	altı nasılsın	-0.5000
-1.5795	ekmek bugün	-0.5000
-1.5655	ekmek sen	-0.5000
-1.5499	yedi ben	-0.5000
-1.6205	iyi nasılsın	-0.5000
-1.6125	sen altı	-0.5000
-1.5601	hoşça bugün	-0.5000
-1.5590	merhaba yarın	-0.5000
-1.5621	yardım durdur	-0.5000
-1.5367	durdur beş	-0.5000
-1.5409	gün sekiz	-0.5000
-1.5900	sekiz üç	-0.5000
-1.5453	beş peki	-0.5000
-1.6154	iyi kahve	-0.5000
-1.5999	iyi iyi	-0.5000
-1.5831	altı yedi	-0.5000
-1.5439	beş nerede	-0.5000
-1.5409	tamam tamam	-0.5000
-1.5815	ekmek beş	-0.5000
-1.5996	sekiz beş	-0.5000
-1.5580	bugün akşamlar	-0.5000
-1.5089	peki merhaba	-0.5000
-1.5825	ekmek kahve	-0.5000
-1.5590	siz tamam	-0.5000
-1.5459	çay evet	-0.5000
-1.6029	yarın sekiz	-0.5000
-1.5775	ekmek kal	-0.5000
-1.5677	merhaba lütfen	-0.5000
-1.5706	lütfen beş	-0.5000
-1.4984	nasılsın üç	-0.5000
-1.6145	sen su	-0.5000
-1.5683	su hoşça	-0.5000
-1.5071	peki altı	-0.5000
-1.5826	altı siz	-0.5000
-1.5726	teşekkürler peki	-0.5000
-1.5583	su iyi	-0.5000
-1.5939	üç evet	-0.5000
-1.5593	teşekkürler git	-0.5000
-1.5347	durdur gün	-0.5000
-1.5537	gün kahve	-0.5000
-1.5386	kahve peki	-0.5000
-1.5975	altı gel	-0.5000
-1.5910	iki yedi	-0.5000
-1.5254	nerede durdur	-0.5000
-1.5537	biz zaman	-0.5000
-1.5633	ne iyi	-0.5000
-1.5342	beş ne	-0.5000
-1.4951	akşamlar ne	-0.5000
-1.5201	nerede başla	-0.5000
-1.6151	yarın beş	-0.5000
-1.5794	dört ben	-0.5000
-1.5806	hayır kahve	-0.5000
-1.5518	tamam gel	-0.5000
-1.5569	ben üç	-0.5000
-1.6098	iyi başla	-0.5000
-1.5645	başla durdur	-0.5000
-1.5405	kahve akşamlar	-0.5000
-1.5649	hoşça nerede	-0.5000
-1.6004	iyi zaman	-0.5000
-1.6035	zaman dört	-0.5000
-1.5352	durdur çay	-0.5000
-1.5267	kahve günaydın	-0.5000
-1.5538	hoşça yok	-0.5000
-1.5857	altı tamam	-0.5000
-1.5094	peki bir	-0.5000
-1.5401	bugün sekiz	-0.5000
-1.5275	beş zaman	-0.5000
-1.5570	biz üç	-0.5000
-1.5978	sekiz gün	-0.5000
-1.5564	başla hayır	-0.5000
-1.5751	yok üç	-0.5000
-1.6008	yarın zaman	-0.5000
-1.6069	yarın altı	-0.5000
-1.5488	çay durdur	-0.5000
-1.5617	teşekkürler var	-0.5000
-1.5799	günaydın kal	-0.5000
-1.4882	akşamlar yarın	-0.5000
-1.5558	yardım teşekkürler	-0.5000
-1.5532	biz yarın	-0.5000
-1.6184	sen gün	-0.5000
-1.5776	var durdur	-0.5000
-1.5504	başla zaman	-0.5000
-1.5865	iki ne	-0.5000
-1.5225	nerede evet	-0.5000
-1.5972	zaman iyi	-0.5000
-1.5790	git git	-0.5000
-1.5864	git çay	-0.5000
-1.5604	ben ne	-0.5000
-1.5489	yedi bir	-0.5000
-1.5883	üç hayır	-0.5000
-1.5052	peki iki	-0.5000
-1.5690	var hayır	-0.5000
-1.5699	günaydın zaman	-0.5000
-1.5575	biz iki	-0.5000
-1.5597	başla kal	-0.5000
-1.5230	kahve sekiz	-0.5000
-1.6143	zaman nerede	-0.5000
-1.5832	var akşamlar	-0.5000
-1.5642	lütfen var	-0.5000
-1.5812	var peki	-0.5000
-1.5681	teşekkürler beş	-0.5000
-1.5390	gün zaman	-0.5000
-1.5403	yedi yarın	-0.5000
-1.5605	hoşça çay	-0.5000
-1.5893	üç var	-0.5000
-1.5767	hayır siz	-0.5000
-1.5713	yok yarın	-0.5000
-1.5915	iki evet	-0.5000
-1.5468	evet biz	-0.5000
-1.5478	gün biz	-0.5000
-1.5805	bir gel	-0.5000
-1.5707	merhaba yedi	-0.5000
-1.6064	yarın yok	-0.5000
-1.5642	biz siz	-0.5000
-1.5603	biz ne	-0.5000
-1.5599	biz ekmek	-0.5000
-1.5825	ekmek durdur	-0.5000
-1.5507	çay nerede	-0.5000
-1.5429	bugün git	-0.5000
-1.5473	beş akşamlar	-0.5000
-1.5801	ne nerede	-0.5000
-1.5371	beş kal	-0.5000
-1.6110	yarın kal	-0.5000
-1.5776	yok günaydın	-0.5000
-1.5805	yok teşekkürler	-0.5000
-1.5903	üç lütfen	-0.5000
-1.5677	merhaba bir	-0.5000
-1.5426	çay bir	-0.5000
-1.6002	iki akşamlar	-0.5000
-1.4974	akşamlar ben	-0.5000
-1.5439	bugün altı	-0.5000
-1.5522	yardım yok	-0.5000
-1.5579	yardım siz	-0.5000
-1.6083	iyi merhaba	-0.5000
-1.5635	su git	-0.5000
-1.5487	gün kal	-0.5000
-1.5465	yedi günaydın	-0.5000
-1.5819	dört evet	-0.5000
-1.5569	lütfen zaman	-0.5000
-1.5501	yardım üç	-0.5000
-1.5496	kal iyi	-0.5000
-1.6184	sen bugün	-0.5000
-1.5296	kahve teşekkürler	-0.5000
-1.5677	bir bugün	-0.5000
-1.5487	gün hoşça	-0.5000
-1.5555	kal yok	-0.5000
-1.5763	altı git	-0.5000
-1.4702	gel kal	-0.5000
-1.5658	bir kal	-0.5000
-1.5494	yedi biz	-0.5000
-1.5444	evet hayır	-0.5000
-1.5675	ekmek zaman	-0.5000
-1.5431	çay teşekkürler	-0.5000
-1.5366	tamam ben	-0.5000
-1.6131	yarın bugün	-0.5000
-1.5343	kahve tamam	-0.5000
-1.5799	üç sen	-0.5000
-1.5594	ben altı	-0.5000
-1.5627	biz başla	-0.5000
-1.5256	tamam sen	-0.5000
-1.6062	sen yarın	-0.5000
-1.5702	merhaba yardım	-0.5000
-1.5715	var biz	-0.5000
-1.5313	tamam iki	-0.5000
-1.5614	ben merhaba	-0.5000
-1.5737	git iyi	-0.5000
-1.6035	zaman günaydın	-0.5000
-1.5010	peki yarın	-0.5000
-1.5608	biz var	-0.5000
-1.5363	bugün sen	-0.5000
-1.5186	nerede su	-0.5000
-1.5220	nerede yedi	-0.5000
-1.5645	ben siz	-0.5000
-1.5448	bugün ne	-0.5000
-1.5809	günaydın siz	-0.5000
-1.5264	durdur üç	-0.5000
-1.5032	nasılsın lütfen	-0.5000
-1.5754	kal gel	-0.5000
-1.6044	zaman ne	-0.5000
-1.5720	var başla	-0.5000
-1.5694	günaydın yarın	-0.5000
-1.5759	günaydın altı	-0.5000
-1.5327	durdur hoşça	-0.5000
-1.5623	biz teşekkürler	-0.5000
-1.6154	sen biz	-0.5000
-1.5470	yedi ekmek	-0.5000
-1.5329	çay sen	-0.5000
-1.5771	lütfen akşamlar	-0.5000
-1.5294	beş sekiz	-0.5000
-1.5256	beş sen	-0.5000
-1.4683	gel su	-0.5000
-1.6670	teşekkürler biz	-0.5000
-1.6778	dört yok	-0.5000
-1.6440	beş evet	-0.5000
-1.7140	zaman bugün	-0.5000
-1.6762	var hoşça	-0.5000
-1.6677	merhaba yok	-0.5000
-1.6576	bir yarın	-0.5000
-1.7142	yarın hoşça	-0.5000
-1.6810	günaydın su	-0.5000
-1.6708	lütfen kal	-0.5000
-1.6536	kal sekiz	-0.5000
-1.6831	başla gel	-0.5000
-1.6567	siz lütfen	-0.5000
-1.6578	hoşça günaydın	-0.5000
-1.6843	git ne	-0.5000
-1.6766	ne biz	-0.5000
-1.6500	hoşça yarın	-0.5000
-1.7085	üç nasılsın	-0.5000
-1.6038	nasılsın dört	-0.5000
-1.6541	siz ekmek	-0.5000
-1.6510	bugün teşekkürler	-0.5000
-1.6904	üç günaydın	-0.5000
-1.6664	lütfen hayır	-0.5000
-1.6754	hayır günaydın	-0.5000
-1.6877	altı çay	-0.5000
-1.6618	siz çay	-0.5000
-1.6745	merhaba siz	-0.5000
-1.6902	ekmek nerede	-0.5000
-1.6629	biz günaydın	-0.5000
-1.6945	günaydın peki	-0.5000
-1.6653	biz merhaba	-0.5000
-1.6652	merhaba üç	-0.5000
-1.6592	kal hayır	-0.5000
-1.6428	tamam siz	-0.5000
-1.6791	dört hayır	-0.5000
-1.6775	var yardım	-0.5000
-1.6737	var merhaba	-0.5000
-1.6522	siz git	-0.5000
-1.6399	gün iyi	-0.5000
-1.5715	gel hayır	-0.5000
-1.6573	yedi gün	-0.5000
-1.7043	sekiz çay	-0.5000
-1.6760	ekmek günaydın	-0.5000
-1.6626	hoşça hoşça	-0.5000
-1.7199	sen başla	-0.5000
-1.6590	yardım başla	-0.5000
-1.5936	gel gel	-0.5000
-1.6887	yok çay	-0.5000
-1.6835	günaydın hoşça	-0.5000
-1.6679	su altı	-0.5000
-1.7149	sen yok	-0.5000
-1.6220	nerede var	-0.5000
-1.7140	zaman evet	-0.5000
-1.6425	evet sekiz	-0.5000
-1.6511	kal zaman	-0.5000
-1.6785	dört altı	-0.5000
-1.6081	peki üç	-0.5000
-1.6855	günaydın yedi	-0.5000
-1.6930	üç su	-0.5000
-1.6520	çay çay	-0.5000
-1.6544	yardım dört	-0.5000
-1.6804	dört var	-0.5000
-1.6128	peki var	-0.5000
-1.6743	var lütfen	-0.5000
-1.6660	bir hayır	-0.5000
-1.6759	dört iki	-0.5000
-1.6912	iki bir	-0.5000
-1.6558	bir sen	-0.5000
-1.6500	yedi altı	-0.5000
-1.6460	siz zaman	-0.5000
-1.6880	git kal	-0.5000
-1.6115	akşamlar nerede	-0.5000
-1.6289	beş yarın	-0.5000
-1.6578	hoşça altı	-0.5000
-1.6480	bugün ekmek	-0.5000
-1.6447	tamam çay	-0.5000
-1.6413	çay üç	-0.5000
-1.6942	üç teşekkürler	-0.5000
-1.6627	teşekkürler yok	-0.5000
-1.6881	yok evet	-0.5000
-1.7025	sekiz siz	-0.5000
-1.6782	siz gel	-0.5000
-1.6916	su gel	-0.5000
-1.6343	beş iki	-0.5000
-1.6647	başla hoşça	-0.5000
-1.6503	gün su	-0.5000
-1.6824	altı lütfen	-0.5000
-1.6659	biz lütfen	-0.5000
-1.7172	iyi çay	-0.5000
-1.6039	peki zaman	-0.5000
-1.5768	gel yardım	-0.5000
-1.6629	başla lütfen	-0.5000
-1.7025	sekiz yardım	-0.5000
-1.6695	başla beş	-0.5000
-1.6617	biz git	-0.5000
-1.6503	tamam nerede	-0.5000
-1.6226	nerede merhaba	-0.5000
-1.6662	gün akşamlar	-0.5000
-1.6062	akşamlar çay	-0.5000
-1.6045	nasılsın hayır	-0.5000
-1.6579	gün beş	-0.5000
-1.6701	teşekkürler yedi	-0.5000
-1.6868	günaydın çay	-0.5000
-1.6176	peki yedi	-0.5000
-1.6239	nerede teşekkürler	-0.5000
-1.6746	teşekkürler kahve	-0.5000
-1.6887	dört beş	-0.5000
-1.6361	beş yok	-0.5000
-1.6816	günaydın bir	-0.5000
-1.6666	bir ne	-0.5000
-1.6927	hayır nasılsın	-0.5000
-1.5989	nasılsın sekiz	-0.5000
-1.6654	bir altı	-0.5000
-1.6432	durdur durdur	-0.5000
-1.6331	durdur ne	-0.5000
-1.6428	beş yardım	-0.5000
-1.6650	yardım tamam	-0.5000
-1.7089	iyi dört	-0.5000
-1.6442	çay dört	-0.5000
-1.6985	zaman yarın	-0.5000
-1.5715	gel ekmek	-0.5000
-1.6367	beş günaydın	-0.5000
-1.6829	günaydın başla	-0.5000
-1.6605	başla ekmek	-0.5000
-1.7115	zaman kal	-0.5000
-1.6733	ben durdur	-0.5000
-1.6579	gün tamam	-0.5000
-1.6056	akşamlar evet	-0.5000
-1.6783	biz peki	-0.5000
-1.6990	sekiz merhaba	-0.5000
-1.7072	sekiz durdur	-0.5000
-1.6926	dört nerede	-0.5000
-1.6442	çay altı	-0.5000
-1.6670	lütfen ne	-0.5000
-1.6699	ne üç	-0.5000
-1.5911	akşamlar iyi	-0.5000
-1.6395	çay sekiz	-0.5000
-1.6430	çay git	-0.5000
-1.7096	zaman bir	-0.5000
-1.6239	durdur yarın	-0.5000
-1.6367	tamam altı	-0.5000
-1.6478	tamam kahve	-0.5000
-1.6816	dört lütfen	-0.5000
-1.7129	yarın teşekkürler	-0.5000
-1.6553	teşekkürler yarın	-0.5000
-1.6673	yedi nasılsın	-0.5000
-1.6796	merhaba kahve	-0.5000
-1.7007	sekiz başla	-0.5000
-1.6480	bugün hayır	-0.5000
-1.6784	hayır bir	-0.5000
-1.6865	hayır durdur	-0.5000
-1.6785	günaydın günaydın	-0.5000
-1.6552	başla sekiz	-0.5000
-1.6792	ekmek lütfen	-0.5000
-1.7162	yarın yedi	-0.5000
-1.6325	kahve var	-0.5000
-1.6387	durdur yedi	-0.5000
-1.6735	ekmek iki	-0.5000
-1.6151	nasılsın durdur	-0.5000
-1.6758	lütfen tamam	-0.5000
-1.7031	dört gel	-0.5000
-1.6572	evet beş	-0.5000
-1.6703	dört iyi	-0.5000
-1.6313	kahve ekmek	-0.5000
-1.7071	zaman ekmek	-0.5000
-1.6824	ekmek siz	-0.5000
-1.6342	peki gel	-0.5000
-1.6728	bir evet	-0.5000
-1.7013	git akşamlar	-0.5000
-1.6810	dört merhaba	-0.5000
-1.7134	zaman yedi	-0.5000
-1.6088	nasılsın kal	-0.5000
-1.6650	kal yardım	-0.5000
-1.6516	evet ben	-0.5000
-1.6849	git var	-0.5000
-1.7294	sen nerede	-0.5000
-1.6325	durdur hayır	-0.5000
-1.6553	evet çay	-0.5000
-1.6337	tamam üç	-0.5000
-1.6791	dört ekmek	-0.5000
-1.6711	var altı	-0.5000
-1.6919	iki teşekkürler	-0.5000
-1.6032	akşamlar hoşça	-0.5000
-1.6784	hayır lütfen	-0.5000
-1.6683	lütfen su	-0.5000
-1.6655	gün nasılsın	-0.5000
-1.6676	hayır yarın	-0.5000
-1.6727	lütfen yedi	-0.5000
-1.6730	var var	-0.5000
-1.6593	çay peki	-0.5000
-1.6372	çay zaman	-0.5000
-1.5727	gel var	-0.5000
-1.6434	beş yedi	-0.5000
-1.6524	yedi merhaba	-0.5000
-1.6758	merhaba gün	-0.5000
-1.6343	durdur merhaba	-0.5000
-1.7083	iyi yok	-0.5000
-1.6478	çay biz	-0.5000
-1.6708	biz çay	-0.5000
-1.6688	hoşça kahve	-0.5000
-1.6917	üç ne	-0.5000
-1.6809	ne çay	-0.5000
-1.6968	üç yardım	-0.5000
-1.6391	beş merhaba	-0.5000
-1.5875	gel nasılsın	-0.5000
-1.6704	su su	-0.5000
-1.6570	yardım su	-0.5000
-1.6790	su durdur	-0.5000
-1.7040	zaman iki	-0.5000
-1.6848	günaydın yardım	-0.5000
-1.6617	yardım yedi	-0.5000
-1.6454	siz iyi	-0.5000
-1.6841	merhaba peki	-0.5000
-1.7008	iyi yarın	-0.5000
-1.6573	siz biz	-0.5000
-1.7059	zaman yok	-0.5000
-1.6919	iki biz	-0.5000
-1.6635	başla teşekkürler	-0.5000
-1.6658	hayır sen	-0.5000
-1.6535	siz günaydın	-0.5000
-1.6634	merhaba sekiz	-0.5000
-1.6701	lütfen başla	-0.5000
-1.6637	siz beş	-0.5000
-1.6603	merhaba iyi	-0.5000
-1.7022	iki nerede	-0.5000
-1.6802	biz nasılsın	-0.5000
-1.6904	üç altı	-0.5000
-1.6900	lütfen gel	-0.5000
-1.6448	çay ekmek	-0.5000
-1.6633	lütfen iki	-0.5000
-1.6855	iki iki	-0.5000
-1.6791	altı dört	-0.5000
-1.6222	nasılsın akşamlar	-0.5000
-1.6188	peki çay	-0.5000
-1.6811	ekmek hoşça	-0.5000
-1.6704	su merhaba	-0.5000
-1.6522	bugün kal	-0.5000
-1.6697	bir başla	-0.5000
-1.6599	başla günaydın	-0.5000
-1.6448	gün üç	-0.5000
-1.6399	gün yarın	-0.5000
-1.6680	ben yardım	-0.5000
-1.6021	akşamlar biz	-0.5000
-1.6599	siz yardım	-0.5000
-1.6693	ben bugün	-0.5000
-1.7090	yarın günaydın	-0.5000
-1.6521	tamam peki	-0.5000
-1.6605	siz yedi	-0.5000
-1.7166	iyi evet	-0.5000
-1.6396	evet yarın	-0.5000
-1.6861	günaydın evet	-0.5000
-1.6688	hoşça durdur	-0.5000
-1.6658	teşekkürler su	-0.5000
-1.7140	iyi kal	-0.5000
-1.6868	yok siz	-0.5000
-1.5634	gel yarın	-0.5000
-1.7186	sen lütfen	-0.5000
-1.6942	üç biz	-0.5000
-1.6806	yok dört	-0.5000
-1.6703	dört yarın	-0.5000
-1.6831	yok merhaba	-0.5000
-1.6196	nasılsın peki	-0.5000
-1.6648	ben bir	-0.5000
-1.6827	ne beş	-0.5000
-1.6735	ne ekmek	-0.5000
-1.6881	iki günaydın	-0.5000
-1.6124	nerede iyi	-0.5000
-1.6966	sekiz altı	-0.5000
-1.6706	altı yarın	-0.5000
-1.6752	bir tamam	-0.5000
-1.6428	yedi zaman	-0.5000
-1.5738	gel lütfen	-0.5000
-1.6663	kal evet	-0.5000
-1.6598	yedi beş	-0.5000
-1.6867	git teşekkürler	-0.5000
-1.7230	sen evet	-0.5000
-1.6584	evet durdur	-0.5000
-1.6590	yardım ben	-0.5000
-1.6498	evet merhaba	-0.5000
-1.6698	su var	-0.5000
-1.6063	nasılsın su	-0.5000
-1.6722	su ben	-0.5000
-1.6911	üç ekmek	-0.5000
-1.6700	ben çay	-0.5000
-1.6797	altı ekmek	-0.5000
-1.6943	git durdur	-0.5000
-1.6803	ne bugün	-0.5000
-1.6855	git su	-0.5000
-1.7031	günaydın gel	-0.5000
-1.6972	günaydın akşamlar	-0.5000
-1.6788	var evet	-0.5000
-1.6531	yardım git	-0.5000
-1.7095	iyi ekmek	-0.5000
-1.7127	iki gel	-0.5000
-1.7089	iyi günaydın	-0.5000
-1.7077	iyi git	-0.5000
-1.6906	yok tamam	-0.5000
-1.6835	dört hoşça	-0.5000
-1.6799	iki yarın	-0.5000
-1.7140	zaman gün	-0.5000
-1.6892	sekiz iyi	-0.5000
-1.6920	sekiz sekiz	-0.5000
-1.6645	teşekkürler ne	-0.5000
-1.6239	nerede biz	-0.5000
-1.6813	var tamam	-0.5000
-1.6720	merhaba teşekkürler	-0.5000
-1.6760	hayır ekmek	-0.5000
-1.6729	ne günaydın	-0.5000
-1.6477	kahve nasılsın	-0.5000
-1.6705	ne iki	-0.5000
-1.6791	hayır teşekkürler	-0.5000
-1.6295	kahve git	-0.5000
-1.6983	iki tamam	-0.5000
-1.6884	ne peki	-0.5000
-1.5991	akşamlar hayır	-0.5000
-1.7108	iyi var	-0.5000
-1.6652	lütfen yok	-0.5000
-1.6733	lütfen gün	-0.5000
-1.6611	siz bugün	-0.5000
-1.7155	sen günaydın	-0.5000
-1.6759	günaydın iki	-0.5000
-1.6611	siz gün	-0.5000
-1.6350	durdur lütfen	-0.5000
-1.6897	altı beş	-0.5000
-1.6764	altı iki	-0.5000
-1.6900	iki var	-0.5000
-1.6618	kal bir	-0.5000
-1.6708	merhaba merhaba	-0.5000
-1.6658	lütfen dört	-0.5000
-1.6101	nasılsın yardım	-0.5000
-1.6788	var gün	-0.5000
-1.6478	gün dört	-0.5000
-1.6294	durdur iki	-0.5000
-1.6830	altı teşekkürler	-0.5000
-1.6852	hayır beş	-0.5000
-1.5680	gel üç	-0.5000
-1.6720	merhaba biz	-0.5000
-1.6196	nerede yok	-0.5000
-1.6478	beş kahve	-0.5000
-1.6472	gün yok	-0.5000
-1.6440	yardım sen	-0.5000
-1.6650	siz kahve	-0.5000
-1.6701	lütfen ben	-0.5000
-1.6614	hoşça biz	-0.5000
-1.6170	peki siz	-0.5000
-1.6733	merhaba kal	-0.5000
-1.6623	biz yok	-0.5000
-1.6722	su başla	-0.5000
-1.6576	başla iki	-0.5000
-1.7115	zaman hoşça	-0.5000
-1.6710	su bir	-0.5000
-1.6357	nerede peki	-0.5000
-1.6581	biz sekiz	-0.5000
-1.6751	hoşça nasılsın	-0.5000
-1.6804	günaydın var	-0.5000
-1.7097	yarın hayır	-0.5000
-1.6331	kahve su	-0.5000
-1.6706	altı iyi	-0.5000
-1.6805	iki zaman	-0.5000
-1.6614	hoşça teşekkürler	-0.5000
-1.6730	hayır iki	-0.5000
-1.6760	ekmek altı	-0.5000
-1.6623	başla merhaba	-0.5000
-1.6767	ekmek hayır	-0.5000
-1.6659	biz bir	-0.5000
-1.6729	ne dört	-0.5000
-1.6654	ben teşekkürler	-0.5000
-1.6516	bugün ben	-0.5000
-1.6874	iki yok	-0.5000
-1.6781	git sekiz	-0.5000
-1.6535	bugün yardım	-0.5000
-1.6996	sekiz bir	-0.5000
-1.6783	merhaba beş	-0.5000
-1.6966	sekiz dört	-0.5000
-1.6561	kal iki	-0.5000
-1.6146	peki teşekkürler	-0.5000
-1.6398	beş bir	-0.5000
-1.6840	ne durdur	-0.5000
-1.6624	bir üç	-0.5000
-1.6978	sekiz ne	-0.5000
-1.5991	akşamlar ekmek	-0.5000
-1.6214	nerede ne	-0.5000
-1.6733	teşekkürler tamam	-0.5000
-1.6711	var günaydın	-0.5000
-1.7008	yarın yarın	-0.5000
-1.6966	sekiz günaydın	-0.5000
-1.6747	su yedi	-0.5000
-1.7681	durdur ekmek	-0.5000
-1.8174	ne yardım	-0.5000
-1.7737	bugün zaman	-0.5000
-1.8418	zaman altı	-0.5000
-1.7479	peki günaydın	-0.5000
-1.7709	kahve merhaba	-0.5000
-1.7545	peki kal	-0.5000
-1.7992	kal başla	-0.5000
-1.8048	var yok	-0.5000
-1.8026	yok sen	-0.5000
-1.8091	su teşekkürler	-0.5000
-1.7443	akşamlar siz	-0.5000
-1.7926	gün yedi	-0.5000
-1.7962	yedi evet	-0.5000
-1.7055	gel iki	-0.5000
-1.7892	gün ben	-0.5000
-1.7841	ben iyi	-0.5000
-1.8573	zaman kahve	-0.5000
-1.7941	siz ben	-0.5000
-1.8015	altı zaman	-0.5000
-1.8504	zaman siz	-0.5000
-1.8269	git siz	-0.5000
-1.7869	çay ben	-0.5000
-1.8051	ben yedi	-0.5000
-1.8074	ne git	-0.5000
-1.7266	gel nerede	-0.5000
-1.8577	sen hoşça	-0.5000
-1.8099	bir yardım	-0.5000
-1.7086	gel günaydın	-0.5000
-1.7972	hoşça merhaba	-0.5000
-1.7451	nasılsın ben	-0.5000
-1.8577	sen kal	-0.5000
-1.8001	kal kal	-0.5000
-1.8153	var yedi	-0.5000
-1.8229	altı evet	-0.5000
-1.8184	git altı	-0.5000
-1.7811	nerede akşamlar	-0.5000
-1.7936	bugün evet	-0.5000
-1.7877	evet lütfen	-0.5000
-1.7997	kahve gel	-0.5000
-1.8671	zaman akşamlar	-0.5000
-1.8197	var beş	-0.5000
-1.8009	başla bir	-0.5000
-1.8014	var üç	-0.5000
-1.8139	merhaba bugün	-0.5000
-1.7347	akşamlar git	-0.5000
-1.8400	git peki	-0.5000
-1.7946	var yarın	-0.5000
-1.8252	git hoşça	-0.5000
-1.7529	nasılsın tamam	-0.5000
-1.7827	evet yok	-0.5000
-1.7183	gel bugün	-0.5000
-1.8692	iyi akşamlar	-0.5000
-1.7509	akşamlar kahve	-0.5000
-1.7949	kal ne	-0.5000
-1.8355	üç gün	-0.5000
-1.8187	hoşça akşamlar	-0.5000
-1.7403	akşamlar bir	-0.5000
-1.7935	gün gün	-0.5000
-1.7902	çay yedi	-0.5000
-1.7704	evet sen	-0.5000
-1.7677	akşamlar gel	-0.5000
-1.8114	lütfen evet	-0.5000
-1.8432	sekiz yedi	-0.5000
-1.8311	üç başla	-0.5000
-1.7737	beş hayır	-0.5000
-1.8148	merhaba çay	-0.5000
-1.8083	git zaman	-0.5000
-1.8635	zaman peki	-0.5000
-1.7612	peki beş	-0.5000
-1.8013	yedi durdur	-0.5000
-1.8090	kal durdur	-0.5000
-1.8662	zaman nasılsın	-0.5000
-1.7892	yardım ne	-0.5000
-1.8132	ne lütfen	-0.5000
-1.8046	çay nasılsın	-0.5000
-1.7417	nasılsın var	-0.5000
-1.8118	var ben	-0.5000
-1.8099	ne hayır	-0.5000
-1.8441	sekiz bugün	-0.5000
-1.6992	gel zaman	-0.5000
-1.8387	altı akşamlar	-0.5000
-1.8350	altı peki	-0.5000
-1.7722	peki akşamlar	-0.5000
-1.7775	durdur bugün	-0.5000
-1.7987	bugün kahve	-0.5000
-1.7601	akşamlar akşamlar	-0.5000
-1.7433	nerede sen	-0.5000
-1.7622	tamam iyi	-0.5000
-1.8351	dört peki	-0.5000
-1.8149	hayır su	-0.5000
-1.8074	biz yardım	-0.5000
-1.8270	dört tamam	-0.5000
-1.8726	sen peki	-0.5000
-1.7672	durdur günaydın	-0.5000
-1.7460	akşamlar bugün	-0.5000
-1.7827	bugün yok	-0.5000
-1.8228	yok hoşça	-0.5000
-1.8038	yardım kahve	-0.5000
-1.7783	kahve çay	-0.5000
-1.8148	üç zaman	-0.5000
-1.8293	üç bir	-0.5000
-1.8174	merhaba tamam	-0.5000
-1.8217	dört yardım	-0.5000
-1.7946	yardım hoşça	-0.5000
-1.8022	gün nerede	-0.5000
-1.7498	nerede sekiz	-0.5000
-1.7859	kahve nerede	-0.5000
-1.8106	ekmek dört	-0.5000
-1.7283	nasılsın yarın	-0.5000
-1.7940	kal ekmek	-0.5000
-1.8051	başla siz	-0.5000
-1.8059	başla yedi	-0.5000
-1.8109	yedi akşamlar	-0.5000
-1.7237	akşamlar sen	-0.5000
-1.8124	hayır hayır	-0.5000
-1.7809	durdur tamam	-0.5000
-1.8352	sekiz ekmek	-0.5000
-1.8495	iyi ben	-0.5000
-1.7989	ben su	-0.5000
-1.7770	tamam bir	-0.5000
-1.8216	hayır bugün	-0.5000
-1.8446	ekmek gel	-0.5000
-1.7998	biz hayır	-0.5000
-1.8443	hayır gel	-0.5000
-1.7175	gel yedi	-0.5000
-1.7915	durdur nasılsın	-0.5000
-1.8492	sen git	-0.5000
-1.8175	altı biz	-0.5000
-1.8118	başla kahve	-0.5000
-1.7706	durdur su	-0.5000
-1.8191	ne gün	-0.5000
-1.7564	durdur iyi	-0.5000
-1.7630	nerede kal	-0.5000
-1.7966	kal su	-0.5000
-1.7877	çay hoşça	-0.5000
-1.7762	beş su	-0.5000
-1.8175	su beş	-0.5000
-1.7802	bugün iki	-0.5000
-1.8384	iki kahve	-0.5000
-1.8184	git günaydın	-0.5000
-1.8038	siz durdur	-0.5000
-1.8288	dört kahve	-0.5000
-1.8355	üç bugün	-0.5000
-1.8441	sekiz evet	-0.5000
-1.7737	tamam hayır	-0.5000
-1.7995	ekmek yarın	-0.5000
-1.7852	çay lütfen	-0.5000
-1.7655	durdur git	-0.5000
-1.7778	tamam teşekkürler	-0.5000
-1.8041	su günaydın	-0.5000
-1.7572	kahve iyi	-0.5000
-1.7392	nasılsın günaydın	-0.5000
-1.8027	kal yedi	-0.5000
-1.8286	git evet	-0.5000
-1.8101	başla tamam	-0.5000
-1.8328	hayır peki	-0.5000
-1.8036	merhaba dört	-0.5000
-1.8226	iki dört	-0.5000
-1.7635	nasılsın nasılsın	-0.5000
-1.7737	tamam ekmek	-0.5000
-1.7903	yedi lütfen	-0.5000
-1.8376	zaman üç	-0.5000
-1.8487	iyi biz	-0.5000
-1.8015	bir günaydın	-0.5000
-1.7889	durdur peki	-0.5000
-1.7915	siz merhaba	-0.5000
-1.8174	hayır başla	-0.5000
-1.7283	nasılsın iyi	-0.5000
-1.8384	sekiz lütfen	-0.5000
-1.7742	kahve hoşça	-0.5000
-1.7628	peki kahve	-0.5000
-1.8409	sen zaman	-0.5000
-1.7692	kahve ne	-0.5000
-1.8057	bir lütfen	-0.5000
-1.7605	durdur sekiz	-0.5000
-1.8125	biz tamam	-0.5000
-1.7880	tamam durdur	-0.5000
-1.8280	merhaba nasılsın	-0.5000
-1.8059	yok zaman	-0.5000
-1.7919	yardım lütfen	-0.5000
-1.8166	gün gel	-0.5000
-1.8124	ne merhaba	-0.5000
-1.7866	gün merhaba	-0.5000
-1.8363	üç çay	-0.5000
-1.8314	yok kahve	-0.5000
-1.7717	kahve bir	-0.5000
-1.8167	bir durdur	-0.5000
-1.8390	üç beş	-0.5000
-1.8132	ne bir	-0.5000
-1.8108	bir yedi	-0.5000
-1.8189	yedi gel	-0.5000
-1.8019	yardım beş	-0.5000
-1.8284	altı kahve	-0.5000
-1.7358	nasılsın iki	-0.5000
-1.8049	biz ben	-0.5000
-1.8522	iyi siz	-0.5000
-1.7936	merhaba zaman	-0.5000
-1.8096	ben tamam	-0.5000
-1.7216	gel beş	-0.5000
-1.8074	hayır üç	-0.5000
-1.7992	yardım çay	-0.5000
-1.8157	ne hoşça	-0.5000
-1.8225	ne tamam	-0.5000
-1.8109	var teşekkürler	-0.5000
-1.7881	siz dört	-0.5000
-1.8235	günaydın bugün	-0.5000
-1.7874	gün bir	-0.5000
-1.8097	lütfen siz	-0.5000
-1.8594	sen siz	-0.5000
-1.8020	teşekkürler merhaba	-0.5000
-1.7863	tamam beş	-0.5000
-1.7981	hoşça lütfen	-0.5000
-1.7928	başla üç	-0.5000
-1.7644	kahve iki	-0.5000
-1.8226	merhaba nerede	-0.5000
-1.7717	kahve lütfen	-0.5000
-1.8202	bir nerede	-0.5000
-1.8066	var ekmek	-0.5000
-1.7737	evet zaman	-0.5000
-1.8490	yarın başla	-0.5000
-1.8015	bir dört	-0.5000
-1.8193	ekmek yardım	-0.5000
-1.8077	altı üç	-0.5000
-1.8091	biz gün	-0.5000
-1.8471	üç peki	-0.5000
-1.7947	hoşça hayır	-0.5000
-1.7984	kal biz	-0.5000
-1.7919	teşekkürler sekiz	-0.5000
-1.8182	dört biz	-0.5000
-1.8261	iki su	-0.5000
-1.8261	iki merhaba	-0.5000
-1.7936	ben git	-0.5000
-1.7457	nerede yarın	-0.5000
-1.8517	yarın siz	-0.5000
-1.7902	evet kal	-0.5000
-1.7893	evet başla	-0.5000
-1.8211	ekmek gün	-0.5000
-1.7987	bugün durdur	-0.5000
-1.8126	yok iki	-0.5000
-1.7664	durdur yok	-0.5000
-1.8046	teşekkürler ben	-0.5000
-1.7630	tamam zaman	-0.5000
-1.8089	teşekkürler evet	-0.5000
-1.7737	beş ekmek	-0.5000
-1.8443	iyi hayır	-0.5000
-1.7216	gel tamam	-0.5000
-1.7662	peki nerede	-0.5000
-1.8015	ben başla	-0.5000
-1.8048	evet peki	-0.5000
-1.8227	yardım gel	-0.5000
-1.7835	evet altı	-0.5000
-1.7728	beş dört	-0.5000
-1.7492	akşamlar tamam	-0.5000
-1.8174	hayır ben	-0.5000
-1.8060	ben evet	-0.5000
-1.8571	yarın tamam	-0.5000
-1.8305	var nasılsın	-0.5000
-1.7917	gün yardım	-0.5000
-1.8097	ekmek yok	-0.5000
-1.8167	ekmek ben	-0.5000
-1.8074	yedi peki	-0.5000
-1.8139	altı ne	-0.5000
-1.7492	akşamlar beş	-0.5000
-1.8062	günaydın sekiz	-0.5000
-1.8568	sen ben	-0.5000
-1.7968	siz siz	-0.5000
-1.7778	beş biz	-0.5000
-1.8287	iki başla	-0.5000
-1.7864	başla iyi	-0.5000
-1.8517	sen hayır	-0.5000
-1.7910	yardım merhaba	-0.5000
-1.8286	git bugün	-0.5000
-1.7832	gün günaydın	-0.5000
-1.8050	git sen	-0.5000
-1.8057	bir bir	-0.5000
-1.7563	nerede günaydın	-0.5000
-1.8321	git beş	-0.5000
-1.7728	bugün iyi	-0.5000
-1.8054	lütfen bir	-0.5000
-1.8226	git bir	-0.5000
-1.7841	hoşça zaman	-0.5000
-1.8003	merhaba iki	-0.5000
-1.7936	evet evet	-0.5000
-1.7494	nasılsın evet	-0.5000
-1.7935	gün bugün	-0.5000
-1.8473	yarın bir	-0.5000
-1.8167	bir kahve	-0.5000
-1.8075	git yarın	-0.5000
-1.7835	bugün günaydın	-0.5000
-1.7894	çay siz	-0.5000
-1.8278	git yedi	-0.5000
-1.7999	su üç	-0.5000
-1.7962	yedi bugün	-0.5000
-1.8327	ekmek peki	-0.5000
-1.7471	peki yok	-0.5000
-1.8090	kal kahve	-0.5000
-1.7086	gel altı	-0.5000
-1.8184	altı başla	-0.5000
-1.7818	evet git	-0.5000
-1.8045	lütfen merhaba	-0.5000
-1.8191	merhaba durdur	-0.5000
-1.8318	zaman zaman	-0.5000
-1.7403	akşamlar lütfen	-0.5000
-1.7415	peki sekiz	-0.5000
-1.7960	başla yok	-0.5000
-1.8408	sekiz kal	-0.5000
-1.8266	hoşça gel	-0.5000
-1.7545	peki hoşça	-0.5000
-1.7945	yedi yardım	-0.5000
-1.8216	hayır evet	-0.5000
-1.8202	yok lütfen	-0.5000
-1.7943	gün çay	-0.5000
-1.8253	su peki	-0.5000
-1.8263	bir akşamlar	-0.5000
-1.7878	lütfen sen	-0.5000
-1.7901	yardım var	-0.5000
-1.7960	ne sen	-0.5000
-1.7465	nerede zaman	-0.5000
-1.8573	sekiz nasılsın	-0.5000
-1.7919	evet yardım	-0.5000
-1.8284	altı durdur	-0.5000
-1.8363	hayır akşamlar	-0.5000
-1.7715	durdur bir	-0.5000
-1.7995	günaydın sen	-0.5000
-1.8067	başla gün	-0.5000
-1.7946	yardım kal	-0.5000
-1.7982	yardım bugün	-0.5000
-1.8139	üç iyi	-0.5000
-1.7698	nerede tamam	-0.5000
-1.8475	sen iki	-0.5000
-1.8105	merhaba hoşça	-0.5000
-1.8049	bir su	-0.5000
-1.8041	su dört	-0.5000
-1.7975	kal lütfen	-0.5000
-1.8235	git biz	-0.5000
-1.8318	biz gel	-0.5000
-1.8166	lütfen kahve	-0.5000
-1.8535	yarın gün	-0.5000
-1.8165	dört su	-0.5000
-1.8157	altı su	-0.5000
-1.7612	peki tamam	-0.5000
-1.7622	tamam yarın	-0.5000
-1.7812	beş siz	-0.5000
-1.8151	başla nerede	-0.5000
-1.7862	durdur nerede	-0.5000
-1.8628	iyi nerede	-0.5000
-1.8469	zaman biz	-0.5000
-1.7987	gün durdur	-0.5000
-1.7375	nasılsın git	-0.5000
-1.7994	lütfen git	-0.5000
-1.8681	yarın nasılsın	-0.5000
-1.7734	kahve ben	-0.5000
-1.7941	siz başla	-0.5000
-1.7860	evet var	-0.5000
-1.8054	teşekkürler kal	-0.5000
-1.7927	bugün yedi	-0.5000
-1.8321	git tamam	-0.5000
-1.7698	nerede beş	-0.5000
-1.7732	durdur ben	-0.5000
-1.7151	gel hoşça	-0.5000
-1.7351	peki sen	-0.5000
-1.8243	ne kahve	-0.5000
-1.8455	yarın var	-0.5000
-1.7387	akşamlar var	-0.5000
-1.8297	yok beş	-0.5000
-1.7953	yedi yedi	-0.5000
-1.7850	ben zaman	-0.5000
-1.7961	çay kahve	-0.5000
-1.8185	yok var	-0.5000
-1.7779	çay iki	-0.5000
-1.7936	bugün bugün	-0.5000
-1.7903	lütfen yarın	-0.5000
-1.8473	yarın lütfen	-0.5000
-1.8074	var ne	-0.5000
-1.8191	ne evet	-0.5000
-1.8074	evet nasılsın	-0.5000
-1.8544	yarın çay	-0.5000
-1.7191	gel çay	-0.5000
-1.8313	iki siz	-0.5000
-1.8296	iki kal	-0.5000
-1.7757	durdur yardım	-0.5000
-1.8176	yok ne	-0.5000
-1.8337	üç siz	-0.5000
-1.7808	kahve beş	-0.5000
-1.8573	zaman durdur	-0.5000
-1.7562	peki yardım	-0.5000
-1.7919	yardım bir	-0.5000
-1.7183	gel gün	-0.5000
-1.8461	zaman lütfen	-0.5000
-1.7707	çay yarın	-0.5000
-1.7820	çay hayır	-0.5000
-1.8285	üç merhaba	-0.5000
-1.8207	üç üç	-0.5000
-1.8150	bir beş	-0.5000
-1.8157	ne kal	-0.5000
-1.8107	su kal	-0.5000
-1.8288	su akşamlar	-0.5000
-1.7841	ben yarın	-0.5000
-1.8036	merhaba altı	-0.5000
-1.7835	evet günaydın	-0.5000
-1.8331	iki bugün	-0.5000
-1.7760	yardım yarın	-0.5000
-1.8339	git kahve	-0.5000
-1.8116	iki iyi	-0.5000
-1.7964	hoşça var	-0.5000
-1.8478	iyi bir	-0.5000
-1.8099	bir siz	-0.5000
-1.8141	su bugün	-0.5000
-1.7023	gel sekiz	-0.5000
-1.8114	ben kahve	-0.5000
-1.7873	hoşça sekiz	-0.5000
-1.7567	akşamlar peki	-0.5000
-1.8062	merhaba var	-0.5000
-1.8288	günaydın durdur	-0.5000
-1.8270	günaydın beş	-0.5000
-1.8019	merhaba git	-0.5000
-1.8229	altı bugün	-0.5000
-1.8228	lütfen peki	-0.5000
-1.8182	hayır hoşça	-0.5000
-1.7840	başla sen	-0.5000
-1.8446	yarın ne	-0.5000
-1.7968	başla altı	-0.5000
-1.8174	günaydın lütfen	-0.5000
-1.7728	evet iyi	-0.5000
-1.7924	durdur akşamlar	-0.5000
-1.9923	siz teşekkürler	-0.5000
-2.0093	ekmek ne	-0.5000
-2.0124	ne var	-0.5000
-1.9881	hoşça iki	-0.5000
-2.0104	günaydın ekmek	-0.5000
-2.0282	iki ben	-0.5000
-1.9897	teşekkürler üç	-0.5000
-2.0023	günaydın üç	-0.5000
-2.0449	sekiz teşekkürler	-0.5000
-2.0098	teşekkürler siz	-0.5000
-1.9988	kal ben	-0.5000
-2.0147	altı ben	-0.5000
-2.0320	üç kal	-0.5000
-1.9802	yardım günaydın	-0.5000
-1.9862	çay var	-0.5000
-2.0452	ben gel	-0.5000
-1.9683	ben sen	-0.5000
-2.0111	başla yardım	-0.5000
-1.9722	beş altı	-0.5000
-1.9883	beş gün	-0.5000
-2.0703	sekiz peki	-0.5000
-1.9982	su iki	-0.5000
-1.9192	gel teşekkürler	-0.5000
-2.0190	altı yardım	-0.5000
-1.9650	yedi sen	-0.5000
-2.0168	su siz	-0.5000
-1.9854	siz hayır	-0.5000
-2.0237	siz nasılsın	-0.5000
-1.9569	peki biz	-0.5000
-2.0560	iyi gün	-0.5000
-1.9505	nerede iki	-0.5000
-1.9696	beş git	-0.5000
-1.9730	durdur biz	-0.5000
-2.0149	siz nerede	-0.5000
-2.0165	lütfen çay	-0.5000
-2.0477	ekmek akşamlar	-0.5000
-1.9687	kahve altı	-0.5000
-2.0314	ben akşamlar	-0.5000
-2.0195	su evet	-0.5000
-2.0044	evet tamam	-0.5000
-1.9802	tamam biz	-0.5000
-1.9829	bugün dört	-0.5000
-1.9999	ekmek üç	-0.5000
-1.9658	çay iyi	-0.5000
-2.0039	ekmek git	-0.5000
-2.0093	hoşça evet	-0.5000
-2.0252	siz akşamlar	-0.5000
-2.0290	zaman sekiz	-0.5000
-2.0035	altı yok	-0.5000
-1.9922	lütfen üç	-0.5000
-1.9996	bir yok	-0.5000
-1.9845	kahve gün	-0.5000
-2.0224	yardım akşamlar	-0.5000
-2.0278	sen sen	-0.5000
-2.0242	hayır yardım	-0.5000
-1.9950	siz kal	-0.5000
-2.0071	kal çay	-0.5000
-2.1024	sen gel	-0.5000
-1.9441	durdur sen	-0.5000
-1.9954	çay yardım	-0.5000
-1.9966	ben lütfen	-0.5000
-2.0235	lütfen durdur	-0.5000
-1.9806	var sen	-0.5000
-2.0106	tamam nasılsın	-0.5000
-1.9815	beş ben	-0.5000
-2.0090	günaydın dört	-0.5000
-1.9895	yedi var	-0.5000
-1.9975	iki sen	-0.5000
-2.0213	bugün nasılsın	-0.5000
-2.0418	merhaba akşamlar	-0.5000
-2.0306	üç ben	-0.5000
-2.0546	iyi yedi	-0.5000
-1.9855	yedi dört	-0.5000
-1.9942	nerede nasılsın	-0.5000
-1.9465	peki git	-0.5000
-2.0134	ekmek bir	-0.5000
-1.9842	evet ekmek	-0.5000
-1.9648	peki evet	-0.5000
-2.0026	hoşça ben	-0.5000
-2.0008	ben kal	-0.5000
-2.0277	su kahve	-0.5000
-2.0070	yedi tamam	-0.5000
-1.9618	tamam sekiz	-0.5000
-1.9718	nerede bugün	-0.5000
-1.9351	gel kahve	-0.5000
-2.0048	su ekmek	-0.5000
-1.9962	bugün siz	-0.5000
-1.9883	beş bugün	-0.5000
-1.9869	tamam yedi	-0.5000
-2.0209	yardım nasılsın	-0.5000
-2.0063	altı hayır	-0.5000
-2.0049	altı altı	-0.5000
-2.0044	bugün tamam	-0.5000
-2.0049	altı günaydın	-0.5000
-1.9351	gel durdur	-0.5000
-1.9897	ben günaydın	-0.5000
-1.9504	nasılsın siz	-0.5000
-2.0231	yok ben	-0.5000
-1.9160	nasılsın sen	-0.5000
-1.9718	nerede gün	-0.5000
-1.9784	durdur siz	-0.5000
-2.0186	dört başla	-0.5000
-2.0215	çay akşamlar	-0.5000
-2.0039	hoşça kal	-0.5000
-1.9908	evet teşekkürler	-0.5000
-2.0368	teşekkürler akşamlar	-0.5000
-1.9166	gel merhaba	-0.5000
-1.9946	kal merhaba	-0.5000
-1.9691	nerede siz	-0.5000
-1.9436	nasılsın bir	-0.5000
-2.0621	sen yardım	-0.5000
-1.9545	nasılsın çay	-0.5000
-2.0030	teşekkürler bir	-0.5000
-1.9141	gel ne	-0.5000
-2.0440	yok nerede	-0.5000
-2.0164	yardım peki	-0.5000
-2.0023	dört üç	-0.5000
-1.9981	çay bugün	-0.5000
-1.9291	akşamlar sekiz	-0.5000
-1.9443	akşamlar merhaba	-0.5000
-2.0145	günaydın merhaba	-0.5000
-2.0885	sekiz gel	-0.5000
-2.0283	biz nerede	-0.5000
-2.0118	dört ne	-0.5000
-1.9950	siz hoşça	-0.5000
-2.0087	nerede gel	-0.5000
-1.9271	gel evet	-0.5000
-1.9816	yardım hayır	-0.5000
-1.9681	kal sen	-0.5000
-2.0296	git yardım	-0.5000
-2.0063	biz biz	-0.5000
-2.0449	iyi su	-0.5000
-2.0030	teşekkürler lütfen	-0.5000
-1.9648	peki bugün	-0.5000
-2.0304	yarın üç	-0.5000
-2.0757	üç gel	-0.5000
-1.9722	tamam günaydın	-0.5000
-2.0148	ekmek teşekkürler	-0.5000
-2.0552	merhaba gel	-0.5000
-1.9948	yedi başla	-0.5000
-2.0383	biz akşamlar	-0.5000
-1.9763	akşamlar nasılsın	-0.5000
-1.9532	nasılsın gün	-0.5000
-1.9557	nerede altı	-0.5000
-1.9986	hoşça su	-0.5000
-2.0504	iyi hoşça	-0.5000
-1.9959	hoşça ne	-0.5000
-2.0422	iyi ne	-0.5000
-2.0156	üç iki	-0.5000
-2.0170	bir gün	-0.5000
-1.9787	siz iki	-0.5000
-2.0104	günaydın hayır	-0.5000
-2.0437	iki durdur	-0.5000
-1.9907	nasılsın gel	-0.5000
-2.0105	altı merhaba	-0.5000
-2.0227	biz durdur	-0.5000
-1.9896	durdur kahve	-0.5000
-2.0758	sekiz akşamlar	-0.5000
-2.0164	ne teşekkürler	-0.5000
-1.9895	evet bir	-0.5000
-2.0101	su lütfen	-0.5000
-1.9809	gün altı	-0.5000
-2.0126	teşekkürler bugün	-0.5000
-1.9449	nasılsın teşekkürler	-0.5000
-2.0131	biz yedi	-0.5000
-1.9931	dört zaman	-0.5000
-1.9700	kahve hayır	-0.5000
-2.0490	zaman ben	-0.5000
-1.9868	hoşça üç	-0.5000
-1.9570	nerede hayır	-0.5000
-2.0267	teşekkürler nerede	-0.5000
-1.9822	gün hayır	-0.5000
-2.0324	hayır tamam	-0.5000
-1.8953	gel iyi	-0.5000
-1.9989	evet bugün	-0.5000
-2.0080	hoşça yedi	-0.5000
-2.0462	ekmek nasılsın	-0.5000
-1.9463	nasılsın başla	-0.5000
-2.0316	başla peki	-0.5000
-2.0353	teşekkürler nasılsın	-0.5000
-2.0114	kal tamam	-0.5000
-1.9868	yedi hayır	-0.5000
-2.0093	hoşça gün	-0.5000
-2.0108	merhaba ben	-0.5000
-1.9984	dört sekiz	-0.5000
-1.9395	nasılsın ne	-0.5000
-2.0366	iki çay	-0.5000
-2.0461	üç kahve	-0.5000
-2.0174	git hayır	-0.5000
-1.9972	gün evet	-0.5000
-1.9468	akşamlar teşekkürler	-0.5000
-2.0323	git gün	-0.5000
-2.0090	biz hoşça	-0.5000
-1.9102	gel yok	-0.5000
-1.9841	siz altı	-0.5000
-1.9762	tamam var	-0.5000
-1.9845	kahve bugün	-0.5000
-1.9892	kal dört	-0.5000
-2.0162	hayır merhaba	-0.5000
-1.9980	ben biz	-0.5000
-1.9829	beş hoşça	-0.5000
-1.9910	var sekiz	-0.5000
-2.0876	sen nasılsın	-0.5000
-2.0564	var gel	-0.5000
-2.0109	hayır dört	-0.5000
-2.0419	su nasılsın	-0.5000
-2.0210	teşekkürler durdur	-0.5000
-1.9988	lütfen altı	-0.5000
-2.0147	git yok	-0.5000
-1.9779	kahve başla	-0.5000
-1.9815	tamam başla	-0.5000
-2.0121	ekmek su	-0.5000
-1.9692	yardım sekiz	-0.5000
-1.9382	nasılsın ekmek	-0.5000
-2.0062	bir merhaba	-0.5000
-2.0138	başla bugün	-0.5000
-1.9819	kahve yardım	-0.5000
-1.9788	tamam lütfen	-0.5000
-1.9896	beş çay	-0.5000
-2.0502	teşekkürler gel	-0.5000
-2.0200	dört kal	-0.5000
-2.0244	yok kal	-0.5000
-1.9883	ben yok	-0.5000
-2.0747	iyi peki	-0.5000
-1.9858	var zaman	-0.5000
-2.0324	iki yardım	-0.5000
-2.0288	kal nasılsın	-0.5000
-1.9882	evet su	-0.5000
-1.9829	yedi git	-0.5000
-1.9880	su zaman	-0.5000
-2.0435	zaman var	-0.5000
-1.9908	yedi su	-0.5000
-1.9865	kal git	-0.5000
-1.9892	kal altı	-0.5000
-2.0288	iyi sekiz	-0.5000
-2.0110	yok git	-0.5000
-1.9688	yedi iyi	-0.5000
-2.0244	kal peki	-0.5000
-2.0254	ben peki	-0.5000
-2.0729	yarın peki	-0.5000
-1.9325	peki iyi	-0.5000
-1.9980	ne sekiz	-0.5000
-1.9449	nasılsın biz	-0.5000
-1.9555	beş iyi	-0.5000
-2.0057	teşekkürler başla	-0.5000
-2.0080	iki sekiz	-0.5000
-2.0071	teşekkürler hoşça	-0.5000
-1.9777	evet iki	-0.5000
-1.9557	nerede dört	-0.5000
-2.0268	var kahve	-0.5000
-1.9115	gel dört	-0.5000
-1.9542	peki su	-0.5000
-2.0195	su gün	-0.5000
-1.9972	yardım evet	-0.5000
-1.9933	hoşça dört	-0.5000
-1.9570	nerede ekmek	-0.5000
-1.9972	yardım gün	-0.5000
-1.9889	gün teşekkürler	-0.5000
-2.0615	ne gel	-0.5000
-2.0148	hoşça tamam	-0.5000
-2.0318	yarın iki	-0.5000
-2.0427	yarın merhaba	-0.5000
-2.0228	dört siz	-0.5000
-2.0102	bir ben	-0.5000
-1.9927	çay kal	-0.5000
-2.0380	sen sekiz	-0.5000
-1.9842	bir iyi	-0.5000
-2.0069	lütfen teşekkürler	-0.5000
-1.9944	gün siz	-0.5000
-1.9903	gün başla	-0.5000
-1.9829	tamam hoşça	-0.5000
-2.0121	tamam akşamlar	-0.5000
-2.0199	biz beş	-0.5000
-2.0161	altı hoşça	-0.5000
-1.9882	bugün merhaba	-0.5000
-2.0325	var nerede	-0.5000
-2.0217	yok biz	-0.5000
-1.9867	su yarın	-0.5000
-2.0017	var dört	-0.5000
-2.0372	yarın dört	-0.5000
-1.9522	kahve yarın	-0.5000
-2.0617	iyi tamam	-0.5000
-1.9829	tamam kal	-0.5000
-1.9764	bugün üç	-0.5000
-1.9803	yedi iki	-0.5000
-2.0572	zaman çay	-0.5000
-1.9766	kahve biz	-0.5000
-2.0200	kal nerede	-0.5000
-2.0934	zaman gel	-0.5000
-1.9756	gün iki	-0.5000
-2.0027	merhaba ekmek	-0.5000
-2.0150	yok ekmek	-0.5000
-2.0187	durdur gel	-0.5000
-2.0246	ekmek çay	-0.5000
-2.0172	günaydın teşekkürler	-0.5000
-2.0144	biz evet	-0.5000
-2.0193	siz peki	-0.5000
-2.0285	yok yedi	-0.5000
-2.0055	lütfen lütfen	-0.5000
-1.9587	nasılsın beş	-0.5000
-1.9730	durdur teşekkürler	-0.5000
-1.9547	akşamlar gün	-0.5000
-1.9976	teşekkürler ekmek	-0.5000
-1.9601	gün sen	-0.5000
-2.0283	hayır çay	-0.5000
-2.0341	dört durdur	-0.5000
-1.9882	siz var	-0.5000
-2.0699	git gel	-0.5000
-2.0626	yarın kahve	-0.5000
-1.9868	bugün var	-0.5000
-2.0161	altı kal	-0.5000
-1.9963	teşekkürler altı	-0.5000
-1.9848	çay ne	-0.5000
-1.9910	teşekkürler iki	-0.5000
-1.9976	evet yedi	-0.5000
-2.0154	yedi nerede	-0.5000
-2.0526	yok nasılsın	-0.5000
-1.9935	yedi teşekkürler	-0.5000
-2.0122	ben beş	-0.5000
-2.0399	günaydın nerede	-0.5000
-2.0057	kal bugün	-0.5000
-1.9730	peki durdur	-0.5000
-2.0119	yardım nerede	-0.5000
-2.0733	sen durdur	-0.5000
-2.0626	yarın durdur	-0.5000
-2.0127	var kal	-0.5000
-1.9241	akşamlar zaman	-0.5000
-2.0089	bir teşekkürler	-0.5000
-1.9689	durdur var	-0.5000
-1.9244	gel siz	-0.5000
-2.0733	sen kahve	-0.5000
-1.9911	ben hayır	-0.5000
-1.9521	akşamlar yardım	-0.5000
-2.0532	iyi yardım	-0.5000
-2.0231	ekmek evet	-0.5000
-2.0272	yok yardım	-0.5000
-1.9623	nerede bir	-0.5000
-1.9980	başla dört	-0.5000
-1.9869	peki nasılsın	-0.5000
-2.0172	günaydın biz	-0.5000
-2.0123	yok yok	-0.5000
-1.9494	akşamlar kal	-0.5000
-2.0159	dört bir	-0.5000
-2.0477	iyi teşekkürler	-0.5000
-1.9816	yardım ekmek	-0.5000
-1.9775	tamam merhaba	-0.5000
-2.0085	var bir	-0.5000
-2.0200	iki ekmek	-0.5000
-2.0927	yarın gel	-0.5000
-1.9518	nasılsın yedi	-0.5000
-1.9963	teşekkürler dört	-0.5000
-2.0071	başla başla	-0.5000
-2.0044	bugün beş	-0.5000
-1.9657	beş üç	-0.5000
-2.0320	üç hoşça	-0.5000
-2.0170	bugün peki	-0.5000
-2.0455	yarın biz	-0.5000
-2.0292	lütfen nerede	-0.5000
-1.9391	akşamlar günaydın	-0.5000
-2.0891	sen akşamlar	-0.5000
-2.0512	sen ne	-0.5000
-1.9802	yardım altı	-0.5000
-1.9775	tamam su	-0.5000
-1.9477	nasılsın hoşça	-0.5000
-1.9854	bir zaman	-0.5000
-2.0183	üç git	-0.5000
-2.0358	başla nasılsın	-0.5000

\3-grams:
-0.2586	yok bugün </s>
-0.3568	çay su </s>
-0.0757	iki yedi </s>
-0.9647	<s> iyi lütfen
-0.3648	yedi üç </s>
-0.8916	<s> tamam yardım
-0.4685	zaman git </s>
-0.4002	kal teşekkürler </s>
-1.0582	<s> bugün biz
-0.2507	üç akşamlar </s>
-0.3435	siz su </s>
-0.2561	yedi sekiz </s>
-1.1264	<s> başla biz
-0.2538	hayır kal </s>
-1.1074	<s> siz yarın
-0.6503	hayır yedi gün
-1.0953	<s> yok sekiz
-0.9935	<s> teşekkürler teşekkürler
-0.4722	yarın su </s>
-0.3533	yarın sen </s>
-0.2435	üç tamam </s>
-0.4274	yarın akşamlar </s>
-1.0751	<s> yarın sekiz
-0.2499	nasılsın üç </s>
-1.0920	<s> peki altı
-1.0695	<s> iki altı
-1.1592	<s> üç evet
-1.1130	<s> biz git
-1.0463	<s> bugün gün
-0.4841	sen üç </s>
-1.0833	<s> yok hayır
-1.1141	<s> yardım biz
-1.1149	<s> biz peki
-0.3441	merhaba başla </s>
-1.0146	<s> teşekkürler zaman
-0.9701	<s> çay sekiz
-0.3692	sekiz kahve </s>
-0.0955	zaman bir </s>
-1.0526	<s> yarın git
-0.0976	bir evet </s>
-0.5413	iyi bugün </s>
-0.9943	<s> evet hoşça
-1.0955	<s> siz ne
-0.4333	iyi iki </s>
-0.2483	zaman teşekkürler </s>
-0.2467	merhaba yedi </s>
-1.0341	<s> ne nerede
-0.8440	<s> akşamlar iki
-1.1850	<s> gün yarın
-0.3435	zaman su </s>
-1.0948	<s> siz sekiz
-0.9945	<s> nerede iyi
-1.1930	<s> yardım ben
-0.3524	var iyi </s>
-0.4394	evet dört </s>
-1.1570	<s> üç sen
-0.1007	günaydın iki </s>
-0.0984	siz gün </s>
-0.9752	<s> git lütfen
-1.1045	<s> durdur hoşça
-0.5429	hoşça siz </s>
-0.2573	yedi biz </s>
-1.0846	<s> kal teşekkürler
-0.2440	yedi bir </s>
-0.4955	bir hoşça </s>
-0.9953	<s> ben sekiz
-0.3575	yok durdur </s>
-0.2548	ben siz </s>
-0.4264	bugün başla </s>
-0.6256	hoşça bir çay
-0.4991	bir çay </s>
-1.2676	<s> merhaba yok
-1.2777	<s> peki günaydın
-0.6528	sen ekmek </s>
-0.6204	yedi kal teşekkürler
-0.5304	bugün lütfen kal
-1.2736	<s> siz lütfen
-0.7171	lütfen hoşça günaydın
-0.1359	su teşekkürler </s>
-0.3339	ne biz </s>
-0.3360	hoşça yarın </s>
-1.2435	<s> iyi üç
-0.3378	siz ekmek </s>
-1.2512	<s> dört bugün
-1.1167	<s> gel iki
-1.2548	<s> yok altı
-1.2744	<s> siz çay
-0.1474	siz ben </s>
-1.1783	<s> beş nasılsın
-1.2648	<s> biz günaydın
-1.0264	<s> akşamlar dört
-0.5303	hayır sekiz </s>
-0.6081	günaydın kahve yedi
-0.6447	kahve yedi </s>
-0.5007	sen bir </s>
-0.7500	iyi gel hayır
-1.2794	<s> bir ekmek
-0.3772	ekmek günaydın yok
-0.8371	günaydın yok gün
-0.1376	ne git </s>
-1.0871	<s> gel ben
-1.1576	<s> git ben
-1.3577	<s> sen başla
-0.1387	hoşça merhaba </s>
-0.3321	sen yok </s>
-1.2266	<s> ekmek yedi
-1.3803	<s> sen kal
-0.5439	zaman hayır </s>
-1.3095	<s> altı çay
-0.1357	altı evet </s>
-1.2607	<s> başla git
-0.3234	peki üç </s>
-1.2803	<s> günaydın yedi
-0.3154	üç su </s>
-0.6525	sen teşekkürler teşekkürler
-0.8757	teşekkürler teşekkürler çay
-0.3267	çay çay </s>
-0.5859	var bugün </s>
-1.2610	<s> iyi kahve
-1.2562	<s> peki var
-0.3430	var lütfen </s>
-1.2691	<s> dört iki
-1.2182	<s> lütfen sekiz
-0.5216	iki beş var
-0.3244	nerede var </s>
-1.2718	<s> siz zaman
-1.2255	<s> ekmek ekmek
-1.3072	<s> gün sekiz
-0.5280	gün sekiz beş
-0.1706	var üç tamam
-1.2902	<s> merhaba bugün
-1.2403	<s> nasılsın tamam
-0.4326	çay evet </s>
-1.1363	<s> var çay
-1.2170	<s> su gel
-0.5292	lütfen beş iki
-1.1567	<s> hoşça beş
-0.7692	hoşça beş başla
-1.2474	<s> üç dört
-0.5164	dört git </s>
-0.6865	evet üç gün
-0.4380	bugün akşamlar </s>
-0.1326	akşamlar bir </s>
-1.2010	<s> teşekkürler peki
-0.1369	gün gün </s>
-0.6293	sekiz zaman </s>
-1.2768	<s> iyi çay
-0.5332	üç evet sen
-1.2265	<s> iki peki
-0.6321	iki peki zaman
-0.3393	gel yardım </s>
-0.1332	üç başla </s>
-1.2433	<s> ekmek sekiz
-1.1879	<s> tamam nerede
-0.3260	nerede merhaba </s>
-0.3267	akşamlar çay </s>
-0.4393	altı gel </s>
-0.3412	teşekkürler kahve </s>
-1.1499	<s> evet siz
-1.1060	<s> sekiz biz
-0.4658	iyi beş </s>
-0.4512	ben dört </s>
-1.3004	<s> bir altı
-0.4264	nerede başla </s>
-0.5913	üç durdur bugün
-1.2016	<s> bugün nerede
-0.5267	iyi başla durdur
-0.6640	günaydın ben </s>
-1.2470	<s> kahve akşamlar
-0.3812	zaman kal hoşça
-0.3143	gün tamam </s>
-1.1663	<s> ne altı
-0.3325	dört nerede </s>
-1.2292	<s> merhaba başla
-1.2457	<s> biz üç
-0.5175	biz üç dört
-0.5875	bir çay git
-1.1527	<s> tamam yok
-0.5164	sekiz git </s>
-1.2906	<s> merhaba tamam
-0.3381	tamam altı </s>
-1.3057	<s> ekmek dört
-1.2118	<s> hayır yedi
-1.2676	<s> altı bir
-1.2769	<s> sen üç
-0.6293	sen çay durdur
-1.1752	<s> sekiz ekmek
-0.7182	teşekkürler günaydın günaydın
-0.1347	gel yedi </s>
-0.1679	durdur nasılsın yok
-0.5301	nasılsın yok </s>
-1.3307	<s> altı biz
-0.3188	yarın yedi </s>
-1.2808	<s> başla zaman
-1.2838	<s> ekmek iki
-0.1377	durdur iyi </s>
-1.1680	<s> nerede kal
-0.4326	nerede evet </s>
-1.3351	<s> gün akşamlar
-0.3253	dört gel </s>
-0.6153	iyi gel </s>
-0.5167	yardım iyi </s>
-0.3378	kahve ekmek </s>
-0.7754	ekmek iyi üç
-1.1613	<s> su tamam
-1.1923	<s> beş yarın
-0.4844	git başla </s>
-1.2786	<s> lütfen tamam
-0.3188	zaman yedi </s>
-0.3393	kal yardım </s>
-0.3840	git var su
-0.1520	su günaydın </s>
-1.2425	<s> günaydın kahve
-0.7083	git iki peki
-0.6918	zaman sen </s>
-1.2666	<s> durdur hayır
-0.4596	üç hayır </s>
-1.1494	<s> zaman merhaba
-0.3381	var altı </s>
-0.3381	dört altı </s>
-0.5164	var hayır yok
-1.2172	<s> iyi gel
-0.7121	kal günaydın zaman
-0.5793	üç durdur dört
-0.5142	dört gün </s>
-0.1429	iyi biz </s>
-1.3225	<s> bir günaydın
-0.4959	günaydın iyi </s>
-0.3762	akşamlar hoşça siz
-0.7114	evet hoşça bugün
-1.3350	<s> gün nasılsın
-1.3106	<s> hayır yarın
-1.3231	<s> bir lütfen
-0.4443	kahve kal </s>
-0.7020	üç sekiz sen
-0.5641	sekiz sen </s>
-1.0666	<s> çay su
-0.6328	lütfen biz </s>
-1.3612	<s> gün gel
-0.1387	ne merhaba </s>
-0.4512	kahve dört </s>
-1.2069	<s> günaydın tamam
-1.3170	<s> sen tamam
-1.3234	<s> üç yardım
-0.6436	üç dört </s>
-1.1162	<s> git dört
-0.1405	bir durdur </s>
-0.7627	yarın evet üç
-1.1947	<s> biz su
-0.7122	su yok yarın
-0.4542	yok yarın </s>
-0.3154	su su </s>
-1.2380	<s> nasılsın iki
-1.3089	<s> gün biz
-0.5930	günaydın iyi siz
-0.1410	iyi siz </s>
-0.7432	yok başla ben
-0.5439	su hayır </s>
-0.6575	sekiz sen var
-0.6683	yarın nerede yardım
-1.2745	<s> iyi yarın
-0.5342	biz ne hoşça
-0.1413	ne hoşça </s>
-1.2234	<s> yarın zaman
-0.5164	nerede git </s>
-1.2553	<s> yok bir
-1.2547	<s> kal üç
-0.3210	başla teşekkürler </s>
-1.2197	<s> lütfen hoşça
-0.3509	siz günaydın </s>
-1.2144	<s> dört çay
-1.2595	<s> iki teşekkürler
-0.4380	beş akşamlar </s>
-0.5272	kahve siz </s>
-0.5195	bugün su yok
-1.2603	<s> günaydın kal
-0.5170	yok günaydın tamam
-1.3223	<s> üç altı
-0.5169	ekmek var </s>
-1.3028	<s> üç lütfen
-1.2080	<s> iki hayır
-1.1789	<s> yedi hoşça
-1.2208	<s> nasılsın akşamlar
-0.6266	başla git başla
-1.2976	<s> kal biz
-0.3234	merhaba üç </s>
-0.5303	yarın ben yardım
-1.1528	<s> var akşamlar
-1.2173	<s> bugün altı
-1.2851	<s> üç durdur
-1.2925	<s> yardım yardım
-1.3148	<s> yardım siz
-1.1982	<s> nasılsın merhaba
-0.3847	merhaba peki lütfen
-0.3360	evet yarın </s>
-0.3295	hoşça durdur </s>
-1.2598	<s> iyi merhaba
-0.5608	evet üç </s>
-0.5151	akşamlar üç </s>
-1.2423	<s> iki evet
-0.5188	gün kal yarın
-0.4392	merhaba sen </s>
-0.4995	sen tamam </s>
-1.1973	<s> yedi günaydın
-1.1006	<s> gel yarın
-0.6244	ne yarın akşamlar
-0.5282	ne ne </s>
-0.6752	hoşça yardım üç
-1.1036	<s> gel nasılsın
-1.2538	<s> kal iyi
-0.5297	sen bugün ekmek
-0.3150	ben bir </s>
-0.1396	tamam zaman </s>
-1.3006	<s> bir ne
-0.5890	merhaba ne </s>
-1.2348	<s> peki iki
-0.5088	kahve teşekkürler teşekkürler
-0.6293	tamam gün hoşça
-0.1461	iyi hayır </s>
-0.4358	sen gün </s>
-0.6236	altı sen </s>
-1.2867	<s> altı git
-0.5310	ben nerede </s>
-1.3583	<s> sen evet
-1.2801	<s> bir kal
-0.1323	yarın tamam </s>
-0.5809	git başla evet
-0.6303	zaman merhaba lütfen
-0.5247	siz yarın sen
-0.1419	ekmek yok </s>
-0.4450	nerede durdur </s>
-0.4596	evet hayır </s>
-1.0872	<s> gel kal
-0.5169	altı var </s>
-1.2018	<s> lütfen biz
-0.7318	lütfen biz su
-0.5025	beş başla </s>
-1.2128	<s> beş biz
-0.3253	günaydın gel </s>
-0.4240	kahve tamam </s>
-0.5197	sen merhaba </s>
-0.5188	sen yarın evet
-0.5226	dört nasılsın </s>
-1.3366	<s> yardım git
-0.6654	git lütfen </s>
-1.1784	<s> beş akşamlar
-0.1326	git bir </s>
-1.1887	<s> günaydın yok
-1.2398	<s> nasılsın evet
-0.8193	iyi lütfen sekiz
-1.2503	<s> altı nerede
-0.6031	git ekmek </s>
-1.1250	<s> ben var
-0.4392	biz sen </s>
-0.4392	tamam sen </s>
-0.3915	biz git yedi
-1.3122	<s> hayır ekmek
-0.1717	su üç biz
-0.5643	ekmek yedi </s>
-0.5757	ben var </s>
-1.3356	<s> sen altı
-0.4264	biz başla </s>
-1.2701	<s> dört lütfen
-0.1728	lütfen merhaba durdur
-0.1405	merhaba durdur </s>
-1.2758	<s> iyi ekmek
-1.2012	<s> ne peki
-1.1606	<s> nasılsın altı
-0.5164	günaydın git </s>
-1.2542	<s> hoşça gel
-0.6300	bugün biz var
-1.2663	<s> merhaba iyi
-1.2461	<s> durdur beş
-1.1176	<s> nerede git
-1.1736	<s> hoşça yardım
-1.1514	<s> ne ben
-1.3043	<s> başla günaydın
-1.2450	<s> biz zaman
-0.5116	biz zaman sen
-0.3150	kal bir </s>
-1.2775	<s> sen ekmek
-1.1663	<s> var var
-1.1687	<s> tamam iki
-0.7090	zaman git ekmek
-0.5755	yarın iyi </s>
-0.5226	kahve zaman </s>
-1.2946	<s> sen iyi
-1.2594	<s> kal gel
-0.5268	kal gel üç
-0.3844	gel üç yarın
-1.1837	<s> evet merhaba
-1.1643	<s> zaman ne
-0.6182	evet kahve evet
-1.2696	<s> kahve nasılsın
-0.3871	kahve nasılsın sekiz
-0.3797	nerede yok başla
-0.5967	yok başla </s>
-1.3080	<s> altı ekmek
-0.4471	akşamlar ne </s>
-0.3291	altı iki </s>
-1.2626	<s> iki gel
-1.2776	<s> lütfen ben
-1.2570	<s> peki siz
-0.4580	teşekkürler peki </s>
-0.7058	ne ben ben
-1.2177	<s> lütfen iyi
-0.7057	yok su sekiz
-0.6180	su sekiz zaman
-0.3790	su bir hoşça
-0.6761	sen teşekkürler beş
-0.5263	merhaba yardım teşekkürler
-0.5767	yarın nerede </s>
-0.6435	sekiz biz </s>
-1.1468	<s> sekiz gün
-0.4333	biz teşekkürler </s>
-1.3584	<s> gün durdur
-0.6829	yardım biz </s>
-1.2919	<s> hayır kahve
-0.3858	günaydın yedi ekmek
-0.3243	altı iyi </s>
-0.5226	durdur zaman </s>
-0.3278	iki zaman </s>
-1.2910	<s> kahve ben
-1.2156	<s> peki ne
-0.6353	peki ne biz
-0.3767	bir sen var
-0.5222	durdur gün var
-0.5169	gün var </s>
-0.3229	var gün </s>
-0.3154	yardım su </s>
-1.1456	<s> sekiz üç
-0.5239	sekiz üç yarın
-0.6318	kal teşekkürler iyi
-0.4632	tamam ben </s>
-1.1509	<s> var biz
-0.3858	lütfen yedi bir
-1.1946	<s> beş yedi
-0.3267	peki çay </s>
-1.2364	<s> bugün ben
-1.1601	<s> su ne
-1.1342	<s> nerede başla
-1.1709	<s> git sekiz
-0.1403	çay iki </s>
-0.3260	sekiz merhaba </s>
-0.5282	hayır ne </s>
-0.5851	yardım iki </s>
-1.3140	<s> hayır beş
-0.4443	başla kal </s>
-0.3244	günaydın var </s>
-1.2935	<s> yok ne
-1.2595	<s> günaydın altı
-0.3188	peki yedi </s>
-0.5307	evet biz nasılsın
-0.4392	beş sen </s>
-0.3442	siz beş </s>
-1.2998	<s> bir üç
-1.0725	<s> gel bir
-0.3811	merhaba kal günaydın
-0.4380	kal var </s>
-1.2698	<s> dört var
-0.3841	dört var çay
-0.4426	beş nasılsın </s>
-1.0869	<s> gel su
-0.6702	hoşça yardım iyi
-1.1880	<s> git kahve
-0.3913	ne iki iyi
-0.3143	yok tamam </s>
-0.5349	git iyi bir
-1.1191	<s> sekiz ben
-0.7239	sekiz ben kahve
-0.4471	ben ne </s>
-1.2339	<s> peki yarın
-0.4358	çay gün </s>
-0.5313	biz yarın yarın
-1.1641	<s> zaman günaydın
-0.5345	zaman günaydın beş
-0.3857	siz bugün git
-1.2617	<s> başla ben
-0.3325	iki nerede </s>
-0.3322	sekiz sekiz </s>
-0.5301	tamam yok </s>
-0.3188	su yedi </s>
-1.1646	<s> kahve yedi
-0.5198	ben nasılsın yok
-1.5801	<s> siz teşekkürler
-0.2918	siz teşekkürler biz
-0.7430	teşekkürler biz sen
-0.8023	biz sen teşekkürler
-0.7508	sen teşekkürler </s>
-1.4535	<s> kahve kal
-0.8107	kahve kal siz
-0.8565	kal siz üç
-0.8519	siz üç yok
-0.9347	üç yok iyi
-0.9114	yok iyi bugün
-1.0779	iyi bugün başla
-1.3654	<s> nerede ben
-0.8576	nerede ben dört
-0.8186	ben dört yok
-0.7452	dört yok bir
-0.8580	yok bir var
-0.6631	bir var </s>
-1.5298	<s> durdur ekmek
-0.5936	durdur ekmek ne
-0.2968	ekmek ne var
-0.2894	ne var git
-0.8423	var git iki
-0.9893	git iki beş
-0.8165	iki beş evet
-0.5780	beş evet </s>
-1.3166	<s> sekiz zaman
-1.0663	sekiz zaman bugün
-0.7426	zaman bugün su
-0.7973	bugün su ne
-1.0412	su ne yardım
-0.5781	ne yardım zaman
-0.8375	yardım zaman git
-1.4713	<s> kal var
-0.8185	kal var hoşça
-0.7364	var hoşça bir
-1.5353	<s> hoşça iki
-0.2900	hoşça iki hoşça
-0.6811	iki hoşça </s>
-0.7256	merhaba yok bugün
-0.9504	yok bugün gün
-0.7504	bugün gün </s>
-1.4521	<s> kahve dört
-0.8123	kahve dört bugün
-0.8748	dört bugün zaman
-0.5897	bugün zaman altı
-0.5753	zaman altı bir
-0.9547	altı bir yarın
-0.7537	bir yarın hoşça
-0.6019	yarın hoşça </s>
-0.5843	peki günaydın su
-0.7365	günaydın su sen
-0.9211	su sen ekmek
-1.5305	<s> kahve merhaba
-0.5791	kahve merhaba hayır
-0.8251	merhaba hayır yedi
-1.0651	hayır yedi kal
-0.9094	bugün biz bugün
-0.8563	biz bugün lütfen
-0.7501	lütfen kal sekiz
-0.6048	kal sekiz </s>
-1.5239	<s> peki kal
-0.5885	peki kal başla
-0.5844	kal başla gel
-0.5890	başla gel </s>
-1.4398	<s> var yok
-0.5886	var yok sen
-0.5726	yok sen iyi
-0.9749	sen iyi bugün
-1.0765	iyi bugün yarın
-0.6954	bugün yarın </s>
-0.7305	siz lütfen hoşça
-0.7518	hoşça günaydın su
-0.7584	günaydın su teşekkürler
-1.5129	<s> gün git
-0.8686	gün git ne
-0.7515	git ne biz
-1.4612	<s> hoşça günaydın
-0.7656	hoşça günaydın ekmek
-0.2897	günaydın ekmek başla
-0.6407	ekmek başla </s>
-1.4596	<s> bir iki
-0.9801	bir iki ben
-0.2893	iki ben hoşça
-0.8658	ben hoşça yarın
-0.9595	iyi üç nasılsın
-0.7469	üç nasılsın dört
-0.7459	nasılsın dört akşamlar
-0.8729	dört akşamlar siz
-0.5832	akşamlar siz ekmek
-0.8659	dört bugün teşekkürler
-0.7650	bugün teşekkürler üç
-0.2923	teşekkürler üç günaydın
-0.7453	üç günaydın gün
-0.8760	günaydın gün yedi
-0.5884	gün yedi evet
-0.4590	yedi evet </s>
-0.5802	gel iki lütfen
-0.8672	iki lütfen hayır
-0.7515	lütfen hayır günaydın
-0.7654	hayır günaydın üç
-0.2903	günaydın üç akşamlar
-0.8688	yok altı çay
-0.7426	altı çay gün
-0.8244	çay gün ben
-0.5880	gün ben iyi
-0.4655	ben iyi </s>
-1.4569	<s> zaman kahve
-0.5772	zaman kahve kal
-0.8101	kahve kal üç
-0.8432	kal üç sekiz
-1.0222	üç sekiz teşekkürler
-0.2968	sekiz teşekkürler siz
-0.2865	teşekkürler siz su
-0.7512	siz lütfen kal
-0.7653	lütfen kal ben
-0.2455	kal ben </s>
-0.7350	siz çay merhaba
-0.9563	çay merhaba siz
-0.7577	merhaba siz ben
-0.8060	beş nasılsın merhaba
-0.8678	nasılsın merhaba siz
-0.7294	merhaba siz evet
-1.0106	siz evet ne
-0.8591	evet ne yedi
-0.8560	ne yedi sekiz
-1.6152	<s> altı ben
-0.2844	altı ben ekmek
-1.0290	ben ekmek nerede
-0.6057	ekmek nerede </s>
-0.7526	biz günaydın peki
-0.7396	günaydın peki lütfen
-0.7158	peki lütfen </s>
-0.9554	başla biz merhaba
-0.7509	biz merhaba üç
-0.6910	merhaba üç kal
-0.2916	üç kal hayır
-0.7449	kal hayır kal
-1.4618	<s> merhaba sen
-0.8017	merhaba sen iyi
-1.0201	sen iyi beş
-0.8091	iyi beş tamam
-0.8652	beş tamam siz
-0.6006	tamam siz </s>
-0.8143	siz yarın ben
-0.8117	yarın ben nasılsın
-0.7902	ben nasılsın altı
-1.0399	nasılsın altı zaman
-0.4715	altı zaman </s>
-0.8682	akşamlar dört hayır
-0.7375	dört hayır sekiz
-1.4125	<s> var yardım
-0.7647	var yardım günaydın
-0.2875	yardım günaydın kahve
-1.4327	<s> çay var
-0.2919	çay var merhaba
-0.5906	var merhaba </s>
-1.3992	<s> zaman teşekkürler
-0.7405	zaman teşekkürler zaman
-1.1052	teşekkürler zaman siz
-0.5831	zaman siz git
-0.7592	siz git siz
-0.5779	git siz sen
-0.8548	siz sen bir
-1.5222	<s> üç tamam
-0.7487	üç tamam gün
-0.9162	tamam gün iyi
-0.7297	gün iyi gel
-0.7184	gel hayır yedi
-0.5833	yedi gün </s>
-0.9591	yok sekiz çay
-0.7574	sekiz çay ben
-0.5887	çay ben yedi
-0.4560	ben yedi </s>
-0.8679	bir ekmek günaydın
-0.8470	yok gün ne
-0.9674	gün ne git
-0.8877	gel ben gel
-0.2930	ben gel nerede
-0.5770	gel nerede nerede
-0.6856	nerede nerede </s>
-1.6233	<s> sen hoşça
-0.5836	sen hoşça hoşça
-0.7364	hoşça hoşça bir
-0.9281	hoşça bir yardım
-0.5781	bir yardım zaman
-0.6722	yardım zaman </s>
-0.8848	git ben sen
-0.2284	ben sen </s>
-0.7656	sen başla yardım
-0.2916	başla yardım başla
-0.7519	yardım başla gel
-0.7461	başla gel gel
-0.7534	gel gel günaydın
-0.5127	gel günaydın </s>
-1.3958	<s> git merhaba
-0.8673	git merhaba yok
-0.7523	merhaba yok çay
-0.7421	yok çay günaydın
-0.8685	çay günaydın hoşça
-0.7579	günaydın hoşça merhaba
-1.3766	<s> yarın su
-1.0349	yarın su altı
-0.7460	su altı nasılsın
-0.8729	altı nasılsın ben
-0.5694	nasılsın ben ekmek
-1.0155	ben ekmek bugün
-0.6769	ekmek bugün </s>
-1.4759	<s> ekmek sen
-0.8708	ekmek sen yok
-0.9841	ekmek yedi ben
-0.8498	yedi ben nerede
-0.9146	ben nerede var
-0.6711	nerede var iyi
-0.8729	var iyi nasılsın
-0.6721	iyi nasılsın </s>
-1.0960	teşekkürler teşekkürler zaman
-1.0910	teşekkürler zaman evet
-0.7494	zaman evet sekiz
-0.6048	evet sekiz </s>
-0.5885	sen kal kal
-0.5831	kal kal zaman
-0.7405	kal zaman hayır
-1.4998	<s> beş altı
-0.2825	beş altı sen
-1.0546	altı sen altı
-0.8509	sen altı var
-0.9284	altı var yedi
-0.5733	var yedi hoşça
-0.9440	yedi hoşça bugün
-0.6769	hoşça bugün </s>
-0.7350	altı çay merhaba
-0.9438	çay merhaba yarın
-0.8384	merhaba yarın su
-1.5011	<s> dört altı
-0.6861	dört altı evet
-1.5208	<s> yardım durdur
-0.8553	yardım durdur beş
-0.8856	durdur beş gün
-0.2888	beş gün git
-0.6624	gün git </s>
-1.4396	<s> dört gün
-0.9069	dört gün sekiz
-0.8128	gün sekiz üç
-0.6515	sekiz üç </s>
-0.9286	başla git altı
-0.5712	git altı nerede
-1.0381	altı nerede akşamlar
-0.5585	nerede akşamlar iki
-1.0616	akşamlar iki peki
-0.9134	iki peki üç
-0.6602	günaydın yedi üç
-1.0075	yedi üç su
-1.5078	<s> bugün evet
-0.5881	bugün evet lütfen
-0.5697	evet lütfen hoşça
-0.9530	lütfen hoşça beş
-1.0454	hoşça beş peki
-0.8322	beş peki dört
-0.7883	peki dört </s>
-1.4478	<s> ekmek merhaba
-0.9437	ekmek merhaba sen
-0.8023	merhaba sen teşekkürler
-0.9541	teşekkürler çay çay
-1.5551	<s> yardım dört
-0.7518	yardım dört var
-0.6672	dört var bugün
-0.8764	iyi kahve gel
-0.4673	kahve gel </s>
-0.7514	peki var lütfen
-1.5279	<s> bir hayır
-0.7374	bir hayır zaman
-0.9200	hayır zaman yardım
-1.0527	zaman yardım iyi
-0.9127	yardım iyi iyi
-0.6629	iyi iyi </s>
-1.4170	<s> durdur zaman
-0.9313	durdur zaman akşamlar
-0.4657	zaman akşamlar </s>
-0.7524	dört iki bir
-0.7503	iki bir sen
-0.5641	bir sen </s>
-1.0576	lütfen sekiz peki
-0.2418	sekiz peki </s>
-1.4481	<s> yedi altı
-0.7454	yedi altı yedi
-0.8386	altı yedi çay
-0.7633	yedi çay </s>
-1.5189	<s> su iki
-0.2901	su iki beş
-0.9683	beş var beş
-0.5779	var beş nerede
-0.8635	beş nerede var
-0.7280	siz zaman git
-1.0071	zaman git kal
-0.7375	git kal akşamlar
-0.9499	kal akşamlar nerede
-0.7405	akşamlar nerede ben
-0.8591	nerede ben nasılsın
-0.6614	ben nasılsın </s>
-1.4005	<s> tamam tamam
-0.8558	tamam tamam tamam
-0.6360	tamam tamam </s>
-1.0157	ekmek ekmek beş
-0.8641	ekmek beş yarın
-0.7403	beş yarın sen
-0.8458	sekiz beş başla
-0.9276	beş başla bir
-0.5789	başla bir var
-0.8765	bir var üç
-0.5787	merhaba bugün akşamlar
-0.8217	bugün akşamlar git
-0.5897	akşamlar git peki
-0.5760	git peki merhaba
-0.6675	peki merhaba </s>
-1.4084	<s> gel teşekkürler
-0.2841	gel teşekkürler sen
-0.9650	teşekkürler sen var
-1.1967	sen var yarın
-0.5733	var yarın akşamlar
-1.4489	<s> git hoşça
-0.5834	git hoşça altı
-0.7659	hoşça altı yardım
-0.2424	altı yardım </s>
-1.4722	<s> bugün ekmek
-0.7454	bugün ekmek kahve
-0.8451	ekmek kahve siz
-0.9088	kahve siz tamam
-0.6360	siz tamam </s>
-0.5828	nasılsın tamam çay
-0.7426	tamam çay evet
-0.9541	var çay çay
-0.6796	çay çay üç
-0.7526	çay üç teşekkürler
-0.7507	üç teşekkürler yok
-0.7522	teşekkürler yok evet
-0.7572	yok evet yok
-0.4790	evet yok </s>
-0.8699	yarın sekiz siz
-0.7516	sekiz siz gel
-0.7539	siz gel bugün
-0.4744	gel bugün </s>
-0.7445	su gel hayır
-0.7385	gel hayır nerede
-0.7417	hayır nerede </s>
-1.5485	<s> gün iyi
-0.7609	gün iyi akşamlar
-0.5869	iyi akşamlar kahve
-0.4951	akşamlar kahve </s>
-1.4802	<s> ekmek kal
-0.8761	ekmek kal ne
-0.4770	kal ne </s>
-1.4654	<s> merhaba lütfen
-0.8587	merhaba lütfen beş
-0.7400	beş iki nasılsın
-0.9360	iki nasılsın üç
-1.5207	<s> yedi sen
-0.2906	yedi sen su
-0.8867	sen su siz
-0.2966	su siz hayır
-0.2802	siz hayır yedi
-0.8038	hayır yedi </s>
-0.9182	beş başla hoşça
-0.6019	başla hoşça </s>
-1.0372	üç dört git
-1.3378	<s> evet üç
-0.5831	üç gün su
-0.7443	gün su hoşça
-0.8310	su hoşça beş
-1.0452	hoşça beş nerede
-0.6856	beş nerede </s>
-0.8684	peki altı lütfen
-0.7237	altı lütfen biz
-1.0238	lütfen biz bugün
-0.8575	biz bugün akşamlar
-1.0159	iki altı siz
-0.8869	altı siz nasılsın
-0.2308	siz nasılsın </s>
-1.3673	<s> teşekkürler sen
-1.0444	teşekkürler sen hoşça
-0.5891	sen hoşça akşamlar
-0.5865	hoşça akşamlar bir
-0.8309	teşekkürler peki biz
-0.2819	peki biz su
-1.0693	biz su iyi
-0.8881	su iyi gün
-0.2941	iyi gün gün
-1.5009	<s> biz lütfen
-0.7299	biz lütfen sekiz
-0.9810	lütfen sekiz zaman
-0.7575	iyi çay yedi
-0.5779	çay yedi sekiz
-0.5730	evet sen teşekkürler
-1.1438	teşekkürler teşekkürler git
-0.6624	teşekkürler git </s>
-0.7608	peki zaman akşamlar
-0.5875	zaman akşamlar gel
-0.5796	akşamlar gel yardım
-1.5293	<s> başla lütfen
-0.7585	başla lütfen evet
-0.5827	lütfen evet sekiz
-0.7599	evet sekiz yedi
-0.5633	sekiz yedi üç
-1.0165	yedi üç başla
-0.9589	ekmek sekiz yardım
-0.6217	sekiz yardım </s>
-1.5314	<s> başla beş
-0.7567	başla beş hayır
-0.5753	beş hayır nerede
-0.9763	hayır nerede iki
-0.2321	nerede iki </s>
-1.5371	<s> merhaba çay
-0.5630	merhaba çay su
-0.6857	biz git zaman
-0.5903	git zaman peki
-0.5873	zaman peki beş
-0.5928	peki beş git
-0.2273	beş git </s>
-0.7481	tamam nerede merhaba
-1.0263	bugün gün akşamlar
-0.7470	gün akşamlar çay
-1.4422	<s> dört nasılsın
-0.9131	dört nasılsın hayır
-0.6230	nasılsın hayır </s>
-1.5752	<s> durdur biz
-0.2918	durdur biz lütfen
-0.6306	biz lütfen </s>
-1.5547	<s> gün beş
-0.7344	gün beş teşekkürler
-0.9559	beş teşekkürler yedi
-0.7580	teşekkürler yedi durdur
-0.5722	yedi durdur kal
-0.9675	durdur kal durdur
-0.5774	kal durdur gün
-0.6503	durdur gün </s>
-0.5846	peki günaydın çay
-0.5921	günaydın çay </s>
-1.5168	<s> gün kahve
-0.8555	gün kahve peki
-0.8631	kahve peki yedi
-0.6702	peki yedi kal
-0.9171	yedi kal zaman
-0.7155	kal zaman sen
-1.1099	zaman sen üç
-1.4612	<s> hoşça altı
-0.7464	hoşça altı gel
-1.3937	<s> nerede teşekkürler
-0.7514	nerede teşekkürler kahve
-0.7460	dört iki yedi
-0.9795	evet siz nerede
-0.2883	siz nerede durdur
-0.8007	nerede durdur dört
-0.9577	durdur dört beş
-0.7490	dört beş yok
-0.7450	beş yok altı
-0.7015	yok altı </s>
-1.0466	sekiz biz zaman
-0.8277	biz zaman nasılsın
-0.4714	zaman nasılsın </s>
-1.5116	<s> günaydın bir
-0.7509	günaydın bir ne
-0.7439	bir ne iyi
-0.8628	ne iyi beş
-1.5974	<s> yardım ne
-0.5889	yardım ne lütfen
-0.5938	ne lütfen çay
-0.2943	lütfen çay nasılsın
-0.5866	çay nasılsın var
-0.5889	nasılsın var ben
-0.5787	var ben dört
-1.4016	<s> beş ne
-0.8770	beş ne hayır
-0.5848	ne hayır nasılsın
-0.7465	hayır nasılsın sekiz
-0.7599	nasılsın sekiz bugün
-0.4744	sekiz bugün </s>
-1.3761	<s> gel zaman
-0.5900	gel zaman siz
-0.5842	zaman siz gel
-0.5890	siz gel </s>
-1.4576	<s> teşekkürler kahve
-0.6539	teşekkürler kahve yedi
-1.1129	kahve yedi altı
-0.7597	yedi altı akşamlar
-0.4657	altı akşamlar </s>
-0.7595	bir altı peki
-0.5876	altı peki akşamlar
-0.5751	peki akşamlar ne
-0.8055	akşamlar ne akşamlar
-0.9499	ne akşamlar nerede
-0.7405	akşamlar nerede başla
-1.5972	<s> ekmek akşamlar
-0.2844	ekmek akşamlar üç
-0.9039	akşamlar üç durdur
-0.5885	durdur bugün kahve
-0.5928	bugün kahve altı
-0.2412	kahve altı </s>
-1.4838	<s> ben akşamlar
-0.2935	ben akşamlar akşamlar
-0.4657	akşamlar akşamlar </s>
-0.9625	bugün nerede sen
-0.5774	nerede sen çay
-0.7205	sen çay </s>
-1.4932	<s> durdur durdur
-0.7488	durdur durdur ne
-0.6019	durdur ne </s>
-1.4554	<s> yarın beş
-0.8652	yarın beş yardım
-0.7508	beş yardım tamam
-0.7422	yardım tamam tamam
-0.8740	tamam tamam iyi
-0.5854	tamam iyi dört
-0.7595	iyi dört peki
-0.4907	dört peki </s>
-1.0410	yok hayır su
-0.5938	hayır su evet
-0.2968	su evet tamam
-0.2965	evet tamam biz
-0.2943	tamam biz yardım
-0.4918	biz yardım </s>
-1.3716	<s> çay dört
-0.7451	çay dört ben
-0.8483	dört ben sekiz
-0.9272	ben sekiz hayır
-1.0156	sekiz hayır kahve
-0.8440	hayır kahve zaman
-0.9208	kahve zaman yarın
-0.6138	zaman yarın </s>
-1.5421	<s> bugün dört
-0.2946	bugün dört tamam
-0.5783	dört tamam gel
-0.8588	tamam gel ekmek
-0.6180	gel ekmek </s>
-1.3845	<s> ben üç
-0.8704	ben üç nasılsın
-0.5945	üç nasılsın </s>
-1.4317	<s> beş günaydın
-0.7519	beş günaydın başla
-0.7506	günaydın başla ekmek
-0.7653	başla ekmek üç
-0.2923	ekmek üç teşekkürler
-0.5792	üç teşekkürler </s>
-1.1108	teşekkürler teşekkürler sen
-1.0456	teşekkürler sen peki
-0.4907	sen peki </s>
-1.1150	yardım biz lütfen
-0.7297	biz lütfen iyi
-1.0195	lütfen iyi başla
-0.8744	başla durdur günaydın
-0.5662	durdur günaydın ben
-0.8730	kahve akşamlar bugün
-0.5880	akşamlar bugün yok
-0.4790	bugün yok </s>
-1.4265	<s> zaman kal
-1.0135	kal hoşça nerede
-0.6856	hoşça nerede </s>
-1.4891	<s> iyi zaman
-0.8618	iyi zaman dört
-0.8596	zaman dört ben
-0.8490	dört ben ben
-0.9562	ben ben durdur
-0.7417	ben durdur çay
-0.8847	durdur çay iyi
-0.2274	çay iyi </s>
-1.5900	<s> ekmek git
-0.2851	ekmek git ekmek
-0.9880	git ekmek kahve
-0.8543	ekmek kahve günaydın
-0.8598	kahve günaydın gün
-0.8665	günaydın gün tamam
-1.4046	<s> hayır yok
-1.0322	hayır yok bugün
-1.4279	<s> hoşça yok
-0.8777	hoşça yok hoşça
-0.5836	yok hoşça hoşça
-0.7656	hoşça hoşça evet
-0.2864	hoşça evet siz
-0.9800	evet siz akşamlar
-0.2904	siz akşamlar evet
-0.5780	akşamlar evet </s>
-0.9470	ne altı tamam
-0.6360	altı tamam </s>
-0.7396	biz peki bir
-0.6379	peki bir </s>
-1.4395	<s> bugün sekiz
-0.8697	bugün sekiz merhaba
-0.6714	sekiz merhaba başla
-1.3994	<s> beş zaman
-0.8871	beş zaman sekiz
-0.2926	zaman sekiz durdur
-0.7338	sekiz durdur dört
-0.9580	durdur dört nerede
-1.0379	teşekkürler zaman yardım
-1.1008	zaman yardım kahve
-0.5878	yardım kahve çay
-0.5828	kahve çay altı
-0.7654	çay altı yok
-0.2850	altı yok su
-0.7305	yok su </s>
-1.5073	<s> lütfen ne
-0.7511	lütfen ne üç
-0.5845	ne üç </s>
-0.8617	merhaba başla evet
-0.7043	başla evet </s>
-1.0363	üç dört sen
-0.7189	dört sen </s>
-0.9936	lütfen sekiz ben
-0.9850	sekiz ben üç
-0.8773	ben üç zaman
-0.4715	üç zaman </s>
-0.8613	yarın sekiz gün
-0.6589	sekiz gün </s>
-1.5823	<s> lütfen üç
-0.2946	lütfen üç bir
-0.5935	üç bir yok
-0.2351	bir yok </s>
-1.5772	<s> kahve gün
-0.2914	kahve gün su
-0.7368	gün su sekiz
-0.9211	su sekiz yardım
-0.7660	sekiz yardım akşamlar
-0.2900	yardım akşamlar iyi
-0.7534	akşamlar iyi dört
-0.6088	iyi dört </s>
-0.7401	çay sekiz kahve
-1.6600	<s> sen sen
-0.2884	sen sen bir
-0.9006	sen bir çay
-0.7388	çay git başla
-0.8683	git başla hayır
-0.8870	başla hayır yardım
-0.2424	hayır yardım </s>
-0.9103	tamam yok üç
-0.8513	yok üç yarın
-0.9487	üç yarın zaman
-0.8704	yarın zaman bir
-1.4869	<s> durdur yarın
-0.7471	durdur yarın altı
-0.8504	yarın altı sekiz
-0.9372	altı sekiz git
-0.5825	merhaba tamam altı
-1.5459	<s> lütfen evet
-0.5681	lütfen evet dört
-0.9746	evet dört yardım
-0.5883	dört yardım hoşça
-0.5834	yardım hoşça altı
-0.6189	hoşça altı </s>
-1.5980	<s> gün nerede
-0.5869	gün nerede sekiz
-0.4792	nerede sekiz </s>
-1.4300	<s> tamam kahve
-0.7573	tamam kahve nerede
-0.4798	kahve nerede </s>
-0.5843	ekmek dört lütfen
-0.7380	dört lütfen nasılsın
-0.9612	lütfen nasılsın yarın
-0.4859	nasılsın yarın </s>
-1.4829	<s> yarın teşekkürler
-0.7503	yarın teşekkürler yarın
-0.7288	teşekkürler yarın su
-1.0467	yarın su teşekkürler
-1.0934	hayır yedi nasılsın
-0.7390	yedi nasılsın merhaba
-0.8682	nasılsın merhaba kahve
-0.7339	merhaba kahve siz
-0.9370	kahve siz kal
-0.2968	siz kal çay
-0.2298	kal çay </s>
-1.5417	<s> kal ekmek
-0.5796	kal ekmek başla
-0.8767	ekmek başla siz
-0.4760	başla siz </s>
-0.9328	altı bir sekiz
-0.9588	bir sekiz başla
-0.7582	sekiz başla yedi
-0.5888	başla yedi akşamlar
-0.5860	yedi akşamlar sen
-0.5953	akşamlar sen gel
-0.2284	sen gel </s>
-1.0281	sen üç akşamlar
-1.3356	<s> var bugün
-0.9951	var bugün hayır
-0.7585	bugün hayır hayır
-0.5842	hayır hayır bir
-0.5656	hayır bir </s>
-1.5392	<s> hayır durdur
-0.7636	hayır durdur sen
-0.2885	durdur sen çay
-0.8752	çay durdur tamam
-0.5828	durdur tamam çay
-0.7652	tamam çay yardım
-0.2424	çay yardım </s>
-0.5655	sekiz ekmek iyi
-1.0786	ekmek iyi ben
-0.5885	iyi ben su
-0.5700	ben su tamam
-1.0377	su tamam bir
-0.4495	tamam bir </s>
-1.4759	<s> lütfen beş
-0.8014	lütfen beş teşekkürler
-0.9442	beş teşekkürler var
-0.6631	teşekkürler var </s>
-1.4546	<s> evet yok
-0.5663	evet yok bugün
-1.3695	<s> teşekkürler günaydın
-0.7452	günaydın günaydın kal
-0.8497	günaydın kal akşamlar
-0.9346	kal akşamlar yarın
-0.6954	akşamlar yarın </s>
-1.5567	<s> yardım başla
-0.7502	yardım başla sekiz
-0.7394	başla sekiz iki
-0.9265	sekiz iki hayır
-1.0416	iki hayır bugün
-0.4744	hayır bugün </s>
-1.5580	<s> ekmek gel
-0.5796	ekmek gel yardım
-0.6755	gel yardım teşekkürler
-0.8672	yardım teşekkürler biz
-0.7580	teşekkürler biz hayır
-0.5898	biz hayır gel
-0.5857	hayır gel yedi
-0.8859	gel ben lütfen
-0.2869	ben lütfen ekmek
-0.9568	lütfen ekmek lütfen
-0.7660	ekmek lütfen durdur
-0.2941	lütfen durdur nasılsın
-0.9796	yarın git dört
-1.0601	git dört nasılsın
-0.8918	dört nasılsın zaman
-0.9490	nasılsın zaman dört
-0.8498	zaman dört sen
-0.9703	dört sen git
-0.4653	sen git </s>
-0.5784	altı biz yarın
-0.8207	biz yarın yedi
-1.4194	<s> peki başla
-0.9677	peki başla kahve
-0.5823	başla kahve var
-0.7647	kahve var sen
-0.2907	var sen gün
-0.8174	sen gün beş
-0.6336	gün beş </s>
-1.5305	<s> durdur su
-0.5739	durdur su sen
-0.9029	su sen var
-1.1625	sen var durdur
-0.8649	var durdur yedi
-0.5741	durdur yedi </s>
-0.7500	iyi çay çay
-0.8704	başla zaman bir
-0.7456	ekmek iki ne
-0.8775	iki ne gün
-0.4630	ne gün </s>
-1.4521	<s> nasılsın durdur
-0.7559	nasılsın durdur iyi
-1.1163	iyi lütfen tamam
-0.7656	lütfen tamam nasılsın
-0.2308	tamam nasılsın </s>
-0.5884	nerede kal su
-0.5787	kal su iyi
-0.6629	su iyi </s>
-1.4021	<s> çay hoşça
-0.5830	çay hoşça yarın
-0.6784	hoşça yarın beş
-0.8749	yarın beş su
-0.5890	beş su beş
-0.5779	su beş nerede
-0.8538	beş nerede evet
-0.7383	gün akşamlar dört
-0.8700	akşamlar dört gel
-0.8855	tamam yok bugün
-0.9789	yok bugün iki
-0.5896	bugün iki kahve
-0.5670	iki kahve evet
-1.0253	kahve evet beş
-0.7648	evet beş ben
-0.2455	beş ben </s>
-1.4477	<s> git günaydın
-0.5936	git günaydın dört
-0.2918	günaydın dört iyi
-0.7297	dört iyi gel
-1.4196	<s> kahve siz
-0.9278	kahve siz durdur
-0.5825	siz durdur yedi
-0.7650	durdur yedi var
-0.2920	yedi var yardım
-0.7356	var yardım iyi
-1.3577	<s> ben iki
-0.9787	ben iki sen
-0.2284	iki sen </s>
-1.5041	<s> dört beş
-0.7411	dört beş zaman
-0.8618	beş zaman dört
-0.8781	zaman dört kahve
-0.5822	dört kahve ekmek
-1.3588	<s> ne zaman
-1.0308	ne zaman ekmek
-0.7519	zaman ekmek siz
-0.7361	ekmek siz su
-0.8327	bir ekmek iyi
-0.9694	iyi üç bugün
-0.5939	üç bugün nasılsın
-0.2308	bugün nasılsın </s>
-1.4639	<s> hayır sekiz
-0.9301	hayır sekiz evet
-0.4590	sekiz evet </s>
-1.4918	<s> peki gel
-0.7274	peki gel bir
-0.9562	gel bir evet
-1.0374	su tamam hayır
-0.5744	tamam hayır zaman
-0.9483	hayır zaman iyi
-0.8308	zaman iyi bugün
-0.7346	beş yarın git
-1.0302	yarın git akşamlar
-0.5869	git akşamlar </s>
-1.5472	<s> ekmek yarın
-0.5726	ekmek yarın git
-1.0154	yarın git git
-0.8602	git git çay
-0.8755	git çay lütfen
-0.4984	çay lütfen </s>
-1.5291	<s> durdur git
-0.5754	durdur git başla
-0.7342	lütfen tamam dört
-0.9569	tamam dört merhaba
-0.7665	dört merhaba akşamlar
-0.2275	merhaba akşamlar </s>
-1.6299	<s> üç ben
-0.2892	üç ben ne
-0.7974	ben ne zaman
-1.0315	ne zaman yedi
-1.5547	<s> gün tamam
-0.6847	gün tamam teşekkürler
-0.5644	tamam teşekkürler zaman
-0.7983	teşekkürler zaman </s>
-1.4154	<s> yedi bir
-0.7550	yedi bir ekmek
-0.8504	bir ekmek var
-0.9284	ekmek var yedi
-0.5838	var yedi nasılsın
-0.7472	yedi nasılsın kal
-0.7508	nasılsın kal yardım
-1.4238	<s> evet ben
-0.7370	evet ben ben
-0.9328	ben ben iki
-0.9365	ben iki git
-0.9573	iki git var
-0.9672	var su günaydın
-0.9249	günaydın kahve iyi
-0.5945	kahve iyi yedi
-0.2966	iyi yedi dört
-0.2923	yedi dört nerede
-0.6903	dört nerede nasılsın
-0.2932	nerede nasılsın günaydın
-0.5127	nasılsın günaydın </s>
-0.5886	nerede kal yedi
-0.5633	kal yedi üç
-1.4726	<s> siz sen
-0.8718	siz sen nerede
-0.7325	sen nerede git
-0.8935	nerede git iki
-0.7155	peki zaman sen
-0.7374	durdur hayır zaman
-0.9194	hayır zaman git
-1.0164	zaman git evet
-0.5833	git evet çay
-0.5921	evet çay </s>
-1.5716	<s> başla tamam
-0.5823	başla tamam üç
-0.7458	tamam üç hayır
-1.4532	<s> yedi nasılsın
-0.7305	yedi nasılsın zaman
-0.9390	nasılsın zaman hayır
-0.9294	zaman hayır peki
-0.5923	hayır peki git
-0.2897	peki git git
-0.6624	git git </s>
-0.9278	zaman merhaba dört
-0.5842	merhaba dört ekmek
-0.7314	dört ekmek ekmek
-1.0546	ekmek ekmek bir
-0.2893	ekmek bir var
-0.8675	bir var altı
-1.4051	<s> beş peki
-0.8519	beş peki iki
-0.8777	peki iki dört
-0.5842	iki dört altı
-1.4904	<s> nasılsın nasılsın
-0.5873	nasılsın nasılsın nasılsın
-0.5866	nasılsın nasılsın var
-0.5792	nasılsın var hayır
-1.0447	hayır yok hayır
-0.8100	yok hayır </s>
-0.7382	gel hayır gün
-0.9432	hayır gün kahve
-0.8356	gün kahve evet
-0.7426	kahve evet </s>
-1.4585	<s> tamam ekmek
-0.5703	tamam ekmek ekmek
-0.9908	ekmek ekmek yedi
-1.0076	ekmek yedi lütfen
-0.4984	yedi lütfen </s>
-1.4099	<s> kal günaydın
-0.8785	günaydın zaman üç
-0.5762	zaman üç durdur
-0.9360	durdur dört gün
-1.4896	<s> evet ekmek
-0.2823	evet ekmek iyi
-1.0785	ekmek iyi biz
-0.5747	bir günaydın iyi
-0.8504	peki altı sekiz
-0.9272	altı sekiz hayır
-1.0286	sekiz hayır durdur
-0.7575	hayır durdur peki
-0.5927	durdur peki evet
-0.2236	peki evet </s>
-0.9086	bugün biz iki
-0.8691	biz iki teşekkürler
-0.5792	iki teşekkürler </s>
-1.2927	<s> akşamlar hoşça
-1.1059	hoşça siz merhaba
-0.5791	siz merhaba hayır
-0.8681	merhaba hayır lütfen
-0.7510	hayır lütfen su
-0.7309	lütfen su tamam
-0.7224	su tamam </s>
-0.8748	hoşça bugün zaman
-0.5767	bugün zaman su
-0.8621	zaman su hayır
-0.9286	su hayır başla
-0.4513	hayır başla </s>
-0.7545	gün nasılsın iyi
-0.4655	nasılsın iyi </s>
-0.7409	hayır yarın ekmek
-0.9345	yarın ekmek sekiz
-0.9696	ekmek sekiz lütfen
-0.5840	sekiz lütfen yedi
-0.6702	lütfen yedi hoşça
-0.7366	yedi hoşça </s>
-0.7498	lütfen tamam kahve
-0.7568	tamam kahve hoşça
-0.5935	kahve hoşça ben
-0.2967	hoşça ben kal
-0.2320	ben kal </s>
-1.4931	<s> başla kal
-0.8104	başla kal var
-0.8183	kal var var
-0.7380	var var çay
-0.9549	var çay peki
-0.7562	çay peki kahve
-0.5768	peki kahve sekiz
-0.6845	kahve sekiz </s>
-1.6191	<s> sen zaman
-0.5855	sen zaman kal
-1.0395	kal hoşça merhaba
-1.5233	<s> su kahve
-0.2937	su kahve ne
-0.4770	kahve ne </s>
-1.5276	<s> yedi tamam
-0.2963	yedi tamam sekiz
-0.2353	tamam sekiz </s>
-1.3699	<s> çay zaman
-0.7476	çay zaman nerede
-0.8849	zaman nerede bugün
-0.2325	nerede bugün </s>
-1.3504	<s> gel var
-0.7454	gel var akşamlar
-0.6631	var akşamlar </s>
-0.5790	bir lütfen var
-0.8598	lütfen var peki
-0.8645	var peki gel
-0.7633	peki gel kahve
-0.2884	gel kahve kal
-1.4268	<s> teşekkürler beş
-0.8653	teşekkürler beş yedi
-0.7501	beş yedi merhaba
-0.7515	yedi merhaba gün
-0.7420	merhaba gün zaman
-0.8707	gün zaman yedi
-1.5278	<s> durdur sekiz
-0.5803	durdur sekiz üç
-0.7995	sekiz üç sekiz
-1.5372	<s> biz tamam
-0.5881	biz tamam durdur
-0.5824	tamam durdur merhaba
-0.7592	durdur merhaba nasılsın
-0.4714	merhaba nasılsın </s>
-0.9787	çay su yok
-1.0087	su yok zaman
-0.5806	yok zaman iyi
-0.8703	zaman iyi yok
-0.7378	iyi yok iyi
-0.9502	yok iyi beş
-1.5981	<s> yardım lütfen
-0.5650	yardım lütfen biz
-0.5794	gün gel var
-0.7313	gel var bugün
-0.9826	var bugün yarın
-0.8709	bugün yarın yedi
-0.6746	yarın yedi yarın
-0.8384	yedi yarın su
-1.5501	<s> sen gün
-0.8169	sen gün su
-0.7655	gün su ekmek
-0.2897	su ekmek bugün
-0.8859	ekmek bugün siz
-0.2334	bugün siz </s>
-0.9678	siz ne merhaba
-1.5989	<s> yardım hoşça
-0.5788	yardım hoşça çay
-0.8657	hoşça çay biz
-0.7512	çay biz çay
-0.5921	biz çay </s>
-1.0880	hoşça beş bugün
-0.2889	beş bugün lütfen
-0.7974	bugün lütfen hoşça
-0.9972	lütfen hoşça kahve
-0.7410	hoşça kahve dört
-1.4673	<s> hayır gün
-0.9659	hayır gün merhaba
-0.4685	gün merhaba </s>
-1.1159	günaydın tamam yedi
-0.2812	tamam yedi üç
-1.0168	yedi üç çay
-0.4696	üç çay </s>
-0.9156	sen tamam üç
-0.7524	tamam üç ne
-0.7376	üç ne ne
-0.9195	ne ne çay
-0.7496	ne çay dört
-0.7320	çay dört çay
-0.7633	dört çay </s>
-0.7659	üç yardım nasılsın
-0.2933	yardım nasılsın ben
-0.5786	nasılsın ben üç
-0.8354	ben üç dört
-1.0863	git dört iki
-0.7461	dört iki beş
-0.8162	iki beş merhaba
-0.7375	beş merhaba başla
-1.4890	<s> iyi iyi
-0.8792	iyi iyi ben
-0.5790	iyi ben hoşça
-0.6811	ben hoşça </s>
-1.0542	iki altı hayır
-0.2824	altı hayır yok
-1.1035	hayır yok kahve
-0.5876	yok kahve bir
-0.5890	kahve bir durdur
-1.5922	<s> üç beş
-0.5774	üç beş ne
-0.8772	beş ne bir
-0.5888	ne bir yedi
-0.5891	bir yedi gel
-0.5802	yedi gel nasılsın
-0.5945	gel nasılsın </s>
-1.0399	tamam yardım beş
-0.5723	yardım beş var
-0.9566	beş var yardım
-0.7438	var yardım durdur
-0.6770	yardım durdur </s>
-1.1149	yardım biz merhaba
-0.7305	biz merhaba ne
-0.9750	merhaba ne yarın
-0.8899	ne yarın evet
-0.9574	evet üç var
-0.6631	üç var </s>
-1.4647	<s> merhaba hayır
-0.8593	merhaba hayır siz
-0.8477	hayır siz ne
-0.9343	siz ne altı
-0.9790	ne altı altı
-0.2946	altı altı kahve
-0.5871	altı kahve iyi
-0.4655	kahve iyi </s>
-1.0417	biz su yok
-1.0101	sekiz biz su
-1.0856	biz su su
-1.5560	<s> yardım su
-0.6812	yardım su durdur
-0.5985	su durdur </s>
-0.5804	nasılsın iki evet
-0.8564	iki evet biz
-0.8110	evet biz bugün
-0.8862	biz bugün tamam
-0.2174	bugün tamam </s>
-1.4247	<s> zaman iki
-0.7326	zaman iki altı
-1.0038	iki altı gün
-0.9529	altı gün iyi
-0.7466	gün iyi iyi
-0.8457	iyi iyi iki
-0.8767	gün biz ben
-0.4973	biz ben </s>
-1.6135	<s> altı günaydın
-0.2871	altı günaydın iyi
-1.4994	<s> bir gel
-0.8834	bir gel durdur
-0.2326	gel durdur </s>
-1.3938	<s> yok başla
-0.9783	başla ben günaydın
-0.2921	ben günaydın yardım
-0.7506	günaydın yardım yedi
-0.7499	yardım yedi altı
-0.6189	yedi altı </s>
-1.5938	<s> gün merhaba
-0.5883	gün merhaba zaman
-0.5811	merhaba zaman teşekkürler
-1.4656	<s> hayır ne
-0.8925	hayır ne ben
-1.0090	ne ben tamam
-0.4483	ben tamam </s>
-1.5263	<s> nasılsın siz
-0.2913	nasılsın siz iyi
-0.7297	siz iyi gel
-1.0398	iyi gel beş
-0.5878	gel beş su
-0.5743	beş su hayır
-1.5746	<s> hayır üç
-0.5711	hayır üç sekiz
-0.8304	sen var </s>
-1.4033	<s> yarın nerede
-0.9668	nerede yardım çay
-0.4696	yardım çay </s>
-1.4191	<s> durdur dört
-0.9353	durdur dört dört
-0.9569	dört dört merhaba
-0.7520	dört merhaba peki
-0.6842	merhaba peki kahve
-0.4951	peki kahve </s>
-1.5160	<s> sen merhaba
-0.9099	sen merhaba yedi
-0.7470	iyi yarın yok
-0.8869	yarın yok ben
-0.2455	yok ben </s>
-1.5154	<s> günaydın peki
-0.7394	günaydın peki altı
-0.7015	peki altı </s>
-1.4700	<s> biz siz
-0.8664	biz siz biz
-0.7437	siz biz ne
-0.8702	yarın zaman yok
-0.7317	zaman yok hayır
-1.0293	yok hayır nasılsın
-0.7626	hayır nasılsın sen
-0.2284	nasılsın sen </s>
-0.5735	merhaba bugün nerede
-0.9774	bugün nerede gün
-0.2942	nerede gün nerede
-0.5711	gün nerede git
-0.8487	yok bir iki
-0.9580	bir iki biz
-0.7437	iki biz ekmek
-0.8599	biz ekmek durdur
-0.8852	ekmek durdur siz
-0.2334	durdur siz </s>
-1.4745	<s> ne tamam
-0.5878	ne tamam teşekkürler
-0.4598	tamam teşekkürler </s>
-1.3471	<s> çay nerede
-0.8536	çay nerede ben
-0.8401	nerede ben var
-1.0091	ben var teşekkürler
-0.4598	var teşekkürler </s>
-0.8604	kal üç hayır
-0.8119	üç hayır siz
-0.8757	hayır siz dört
-0.5938	siz dört başla
-0.2917	dört başla teşekkürler
-1.5487	<s> günaydın bugün
-0.5779	günaydın bugün git
-0.6624	bugün git </s>
-0.7453	hoşça günaydın gün
-0.8756	günaydın gün bir
-0.4495	gün bir </s>
-0.5888	bir lütfen siz
-0.5832	lütfen siz ekmek
-1.5325	<s> hayır sen
-0.7605	hayır sen siz
-0.5832	sen siz günaydın
-1.0551	dört çay akşamlar
-0.2275	çay akşamlar </s>
-0.7581	iki teşekkürler merhaba
-0.5836	teşekkürler merhaba sekiz
-0.6048	merhaba sekiz </s>
-1.4610	<s> tamam beş
-0.5781	tamam beş akşamlar
-1.5379	<s> hoşça kal
-0.2843	hoşça kal teşekkürler
-0.8432	ne nerede git
-1.4906	<s> evet teşekkürler
-0.2971	evet teşekkürler akşamlar
-0.2275	teşekkürler akşamlar </s>
-1.5083	<s> dört gel
-0.6886	dört gel merhaba
-0.2941	gel merhaba zaman
-0.4715	merhaba zaman </s>
-1.3866	<s> ben hoşça
-0.8763	ben hoşça lütfen
-0.5839	hoşça lütfen başla
-0.7576	lütfen başla üç
-0.5757	başla üç yok
-0.7401	üç yok </s>
-1.5101	<s> siz beş
-0.6745	siz beş kal
-0.8388	beş kal yarın
-1.0196	kal yarın kal
-0.8858	yarın kal merhaba
-0.2916	kal merhaba iyi
-0.7345	merhaba iyi iki
-0.7644	tamam nerede siz
-0.2865	nerede siz su
-0.8692	siz su hoşça
-0.8763	su hoşça lütfen
-0.5790	hoşça lütfen var
-0.6631	lütfen var </s>
-1.3205	<s> akşamlar kahve
-0.5721	akşamlar kahve siz
-1.4414	<s> bugün su
-0.9764	su yok sekiz
-0.9371	yok sekiz iki
-0.9589	sekiz iki nerede
-0.6686	iki nerede kahve
-0.9642	nerede kahve iki
-0.4737	kahve iki </s>
-1.4677	<s> iki lütfen
-0.8319	iki lütfen biz
-1.0360	lütfen biz nasılsın
-0.7636	biz nasılsın bir
-0.2181	nasılsın bir </s>
-0.8661	günaydın kal sekiz
-0.7395	kal sekiz yok
-0.9461	sekiz yok günaydın
-0.7505	günaydın tamam </s>
-0.7519	üç altı lütfen
-0.7523	altı lütfen gel
-0.7445	lütfen gel ekmek
-0.7381	gel ekmek var
-1.0464	akşamlar iki hayır
-1.0263	iki hayır sen
-0.7670	hayır sen yardım
-0.2424	sen yardım </s>
-1.5531	<s> üç ne
-0.7518	üç ne çay
-0.7496	ne çay ekmek
-0.7519	çay ekmek siz
-0.6006	ekmek siz </s>
-1.4376	<s> dört dört
-0.9353	dört dört günaydın
-0.9452	dört günaydın zaman
-0.8796	günaydın zaman kahve
-0.5721	zaman kahve siz
-0.7409	beş yarın ekmek
-0.9465	yarın ekmek beş
-0.8647	ekmek beş yok
-0.7452	beş yok teşekkürler
-0.6539	yok teşekkürler </s>
-0.8503	üç lütfen nasılsın
-0.9765	lütfen nasılsın çay
-0.2916	nasılsın çay peki
-0.7396	çay peki merhaba
-0.8777	peki merhaba nerede
-0.4798	merhaba nerede </s>
-1.5307	<s> kahve lütfen
-0.5836	kahve lütfen iki
-0.7521	lütfen iki iki
-0.5975	iki iki </s>
-1.5233	<s> teşekkürler bir
-0.2945	teşekkürler bir nerede
-0.5767	bir nerede evet
-0.8028	nerede evet kahve
-0.9155	evet kahve var
-0.7583	kahve var ekmek
-0.4890	var ekmek </s>
-1.2932	<s> akşamlar evet
-0.7567	akşamlar evet zaman
-0.5850	evet zaman yarın
-0.7601	zaman yarın başla
-0.5839	yarın başla beş
-0.6336	başla beş </s>
-1.5379	<s> kahve gel
-0.5916	kahve gel ne
-0.2896	gel ne yedi
-0.8660	ne yedi merhaba
-0.7443	yedi merhaba bir
-0.8765	merhaba bir dört
-0.5753	bir dört gün
-1.5285	<s> başla ekmek
-0.7588	başla ekmek yardım
-0.5832	ekmek yardım dört
-0.7589	yardım dört yardım
-0.5597	dört yardım biz
-1.0848	yardım biz altı
-0.9568	biz altı dört
-0.6088	altı dört </s>
-1.5844	<s> yok nerede
-0.2854	yok nerede yardım
-0.9796	nerede yardım peki
-0.2878	yardım peki bir
-0.8770	peki bir yardım
-0.4918	bir yardım </s>
-1.0019	iki hayır altı
-0.9674	hayır altı üç
-0.5897	altı üç beş
-0.5006	üç beş </s>
-1.3709	<s> tamam dört
-0.9789	tamam dört üç
-0.2947	dört üç başla
-0.9440	yedi hoşça çay
-0.8860	hoşça çay bugün
-0.2939	çay bugün iki
-0.5848	bugün iki biz
-0.7584	iki biz gün
-0.4630	biz gün </s>
-0.7631	nasılsın akşamlar sekiz
-0.2925	akşamlar sekiz başla
-0.7362	sekiz başla git
-1.4146	<s> nasılsın üç
-0.7660	nasılsın üç peki
-0.5817	üç peki çay
-0.6748	peki çay bir
-0.8487	çay bir iki
-0.9486	bir iki akşamlar
-0.8838	iki akşamlar merhaba
-0.2291	akşamlar merhaba </s>
-1.5145	<s> ekmek hoşça
-0.7577	ekmek hoşça hayır
-0.5655	hoşça hayır yok
-0.8143	hayır yok </s>
-0.5788	kal biz ekmek
-0.8327	biz ekmek iyi
-1.0411	ekmek iyi sen
-0.9308	iyi sen teşekkürler
-0.9728	sen teşekkürler sekiz
-0.5898	teşekkürler sekiz yedi
-0.4560	sekiz yedi </s>
-1.3881	<s> ekmek iyi
-0.9170	iyi üç dört
-1.0760	üç dört biz
-0.5836	dört biz günaydın
-0.7657	biz günaydın merhaba
-0.2917	günaydın merhaba üç
-1.5355	<s> biz ben
-0.5739	biz ben iki
-0.9687	ben iki su
-0.5839	iki su merhaba
-0.5906	su merhaba </s>
-0.7392	biz peki iki
-0.8779	peki iki merhaba
-0.5787	iki merhaba yarın
-0.6954	merhaba yarın </s>
-1.4733	<s> bugün kal
-0.7295	bugün kal günaydın
-0.8451	kal günaydın </s>
-1.4716	<s> sekiz gel
-0.2835	sekiz gel bir
-0.9559	gel bir başla
-0.7505	bir başla günaydın
-0.7453	başla günaydın gün
-0.8654	günaydın gün üç
-0.7458	gün üç hayır
-0.7473	gün yarın ben
-0.7502	ben yardım dört
-0.7517	yardım dört hayır
-0.6230	dört hayır </s>
-0.8511	var akşamlar ben
-0.8760	akşamlar ben git
-0.5801	ben git çay
-0.8281	git çay su
-0.8434	bugün altı nerede
-1.0211	altı nerede merhaba
-0.6762	nerede merhaba yedi
-1.4715	<s> iki akşamlar
-0.8617	iki akşamlar biz
-0.7661	akşamlar biz nerede
-0.2933	biz nerede yarın
-0.5900	nerede yarın siz
-0.5835	yarın siz yardım
-0.7431	siz yardım yok
-0.6842	yardım yok </s>
-0.9794	durdur dört ne
-0.2340	dört ne </s>
-1.4161	<s> ben bugün
-0.7419	ben bugün yarın
-0.8704	bugün yarın günaydın
-0.7257	yarın günaydın tamam
-1.0832	günaydın tamam peki
-0.6203	tamam peki </s>
-0.9548	yardım yardım başla
-0.5680	yardım başla </s>
-0.8667	yardım siz yedi
-0.7429	siz yedi ben
-0.7140	yedi ben </s>
-0.8685	nasılsın merhaba peki
-0.8673	peki lütfen su
-0.7435	lütfen su iyi
-0.8709	su iyi evet
-0.7493	iyi evet yarın
-1.5129	<s> günaydın evet
-0.7575	günaydın evet kal
-0.5883	evet kal ekmek
-0.5799	kal ekmek beş
-0.8748	ekmek beş hayır
-0.4927	beş hayır </s>
-1.5806	<s> siz hoşça
-0.2918	siz hoşça durdur
-0.8777	iyi merhaba nerede
-0.5936	merhaba nerede gel
-0.2959	nerede gel evet
-0.2836	gel evet üç
-1.4553	<s> teşekkürler su
-0.7439	teşekkürler su git
-0.8698	su git akşamlar
-0.7300	git akşamlar üç
-1.4247	<s> evet çay
-0.7505	evet çay peki
-0.7239	çay peki dört
-1.0413	peki dört biz
-0.5784	dört biz yarın
-0.6808	biz yarın </s>
-0.8758	iki evet başla
-0.5734	evet başla yarın
-0.9503	başla yarın beş
-0.8645	yarın beş iki
-0.7521	beş iki iki
-0.7389	iki iki git
-0.7154	iki git </s>
-1.4685	<s> biz ekmek
-0.8776	biz ekmek gün
-0.5782	ekmek gün kal
-0.9961	kal yarın git
-1.0158	yarın git merhaba
-0.8575	git merhaba sen
-1.6433	<s> yardım hayır
-0.2870	yardım hayır zaman
-0.9392	hayır zaman su
-1.4427	<s> ben iyi
-0.5856	ben iyi kal
-0.7644	iyi kal sen
-0.2886	kal sen tamam
-0.8505	yedi günaydın git
-0.9383	günaydın git yardım
-0.2890	git yardım yok
-0.8688	yardım yok siz
-0.7502	yok siz ekmek
-0.6812	siz ekmek hoşça
-0.6019	ekmek hoşça </s>
-0.7357	gel yarın akşamlar
-0.5750	ekmek dört dört
-0.9466	dört dört evet
-0.8373	dört evet üç
-0.9496	evet üç durdur
-0.5885	durdur bugün durdur
-0.4745	bugün durdur </s>
-1.5842	<s> sen lütfen
-0.7434	sen lütfen zaman
-0.6722	lütfen zaman </s>
-1.3838	<s> ne yarın
-0.9369	yarın akşamlar üç
-0.9205	akşamlar üç biz
-0.7655	üç biz biz
-0.2892	biz biz ne
-0.8046	biz ne ne
-1.5418	<s> yok iki
-0.5803	yok iki hoşça
-0.8395	iki hoşça yardım
-0.8692	yardım üç su
-0.9594	siz sekiz durdur
-0.7564	sekiz durdur yok
-0.5843	durdur yok dört
-0.7512	yok dört yarın
-0.7470	dört yarın yok
-0.8685	yarın yok merhaba
-0.5906	yok merhaba </s>
-0.7479	gel nasılsın peki
-0.7472	nasılsın peki üç
-0.8877	kal iyi su
-0.2867	iyi su sen
-0.9506	su sen bugün
-0.6180	bugün ekmek </s>
-1.4531	<s> kahve teşekkürler
-0.8323	kahve teşekkürler lütfen
-0.2923	teşekkürler lütfen gel
-0.7274	lütfen gel bir
-0.9449	gel bir bugün
-0.8659	bir bugün teşekkürler
-0.5792	bugün teşekkürler </s>
-1.4884	<s> teşekkürler ben
-0.5837	teşekkürler ben bir
-0.9372	yok sekiz git
-0.9197	sekiz git ne
-0.7519	git ne beş
-0.7422	ne beş tamam
-0.8741	beş tamam zaman
-0.7514	bir ne ekmek
-0.7381	ne ekmek merhaba
-0.9233	ekmek merhaba ne
-0.8688	peki iki günaydın
-0.6501	iki günaydın </s>
-0.9057	günaydın kahve teşekkürler
-1.1796	teşekkürler teşekkürler evet
-0.4590	teşekkürler evet </s>
-1.4646	<s> beş ekmek
-0.5841	beş ekmek günaydın
-0.8443	günaydın yok </s>
-1.3725	<s> tamam gün
-0.8492	gün hoşça peki
-0.9771	hoşça peki bugün
-0.2325	peki bugün </s>
-0.7599	nerede iyi hayır
-1.5016	<s> altı siz
-0.8576	altı siz tamam
-0.8750	siz tamam bir
-0.5798	tamam bir gel
-0.8713	bir gel tamam
-0.5783	gel tamam gel
-0.6656	tamam gel </s>
-0.9584	siz sekiz altı
-0.7512	sekiz altı yarın
-0.7662	altı yarın üç
-0.2974	yarın üç gel
-0.2929	üç gel beş
-0.5006	gel beş </s>
-1.4918	<s> durdur yedi
-0.7358	durdur yedi kal
-0.9084	yedi kal yok
-0.6842	kal yok </s>
-1.4011	<s> hoşça peki
-0.9643	hoşça peki nerede
-0.5866	peki nerede sen
-0.5816	nerede sen gün
-1.3856	<s> ben ne
-0.7980	ben ne ben
-1.0084	ne ben başla
-0.4513	ben başla </s>
-0.8767	iki evet peki
-0.5760	evet peki bir
-0.8679	peki bir tamam
-0.5641	bir tamam </s>
-1.4919	<s> tamam günaydın
-0.2827	tamam günaydın ben
-1.4469	<s> ben yedi
-0.5827	ben yedi zaman
-0.5945	yedi zaman </s>
-1.6065	<s> yardım gel
-0.5795	yardım gel lütfen
-0.7370	gel lütfen ekmek
-0.9795	lütfen ekmek teşekkürler
-0.2241	ekmek teşekkürler </s>
-0.5837	sen kal evet
-0.7572	kal evet altı
-0.5658	evet altı sen
-1.5706	<s> başla yedi
-0.5835	başla yedi beş
-0.7567	yedi beş dört
-0.5750	beş dört günaydın
-0.9570	dört günaydın bir
-0.7373	günaydın bir çay
-0.8743	bir çay üç
-0.5845	çay üç </s>
-0.8687	altı git teşekkürler
-0.7582	git teşekkürler ben
-0.5746	teşekkürler ben nerede
-0.7504	sen evet durdur
-0.7417	evet durdur çay
-0.8559	durdur çay bir
-0.6379	çay bir </s>
-0.7300	yardım ben var
-0.9879	ben var peki
-0.8524	var peki merhaba
-0.8881	peki merhaba gel
-0.2866	merhaba gel kal
-0.8672	gel kal evet
-0.5780	kal evet </s>
-1.3202	<s> akşamlar tamam
-0.5877	akşamlar tamam hayır
-0.5890	tamam hayır ben
-0.5887	hayır ben evet
-0.5830	ben evet merhaba
-0.5906	evet merhaba </s>
-0.8762	bir kal su
-0.5839	kal su var
-0.7515	su var hoşça
-0.6019	var hoşça </s>
-1.5257	<s> yedi başla
-0.2891	yedi başla hayır
-0.8251	başla hayır yedi
-1.0769	hayır yedi yarın
-0.8796	yedi yarın tamam
-1.4156	<s> yedi biz
-0.7703	yedi biz akşamlar
-0.2965	biz akşamlar nasılsın
-0.2962	akşamlar nasılsın gün
-0.2863	nasılsın gün var
-0.9293	gün var nasılsın
-0.5811	var nasılsın su
-0.5666	nasılsın su </s>
-0.9193	başla evet üç
-0.5883	üç gün yardım
-0.4918	gün yardım </s>
-0.8770	merhaba lütfen siz
-0.5779	lütfen siz yarın
-0.8789	yarın sen başla
-0.7362	sen başla git
-0.7136	başla git </s>
-1.0059	çay su ben
-0.7300	su ben ekmek
-1.0406	ben ekmek yok
-1.3194	<s> akşamlar siz
-0.5833	akşamlar siz biz
-0.6088	siz biz </s>
-0.9579	iyi üç ekmek
-0.7587	üç ekmek ben
-0.5746	ekmek ben nerede
-0.9053	ben nerede durdur
-1.4337	<s> beş evet
-0.7425	beş evet hayır
-0.8388	gel kal yarın
-0.9976	kal yarın nerede
-0.9812	yarın nerede altı
-0.2825	nerede altı sen
-1.5071	<s> lütfen hayır
-0.7378	lütfen hayır altı
-0.9357	hayır altı var
-0.8530	yarın sekiz kahve
-1.0238	dört çay ekmek
-0.7584	çay ekmek yok
-1.4125	<s> sekiz çay
-0.7496	sekiz çay altı
-0.7385	çay altı var
-0.9003	altı var iyi
-1.5576	<s> yardım yedi
-0.7575	yardım yedi lütfen
-0.5693	yedi lütfen sekiz
-0.9923	lütfen sekiz sen
-0.9358	sekiz sen ekmek
-1.5307	<s> bir tamam
-0.7498	bir tamam kahve
-0.7122	tamam kahve yedi
-1.1311	kahve yedi peki
-0.5814	yedi peki var
-0.5869	peki var </s>
-1.5331	<s> durdur tamam
-0.5877	durdur tamam ekmek
-0.5792	tamam ekmek zaman
-0.8708	ekmek zaman evet
-0.7281	zaman evet dört
-1.4706	<s> kal yok
-0.8688	kal yok siz
-0.7507	yok siz çay
-0.7424	siz çay teşekkürler
-0.8671	çay teşekkürler su
-0.5666	teşekkürler su </s>
-1.4503	<s> su ben
-0.7512	su ben çay
-0.5921	ben çay </s>
-1.0429	biz su tamam
-1.0094	su tamam ben
-0.8183	tamam ben durdur
-0.7559	ben durdur iyi
-1.5726	<s> altı ne
-0.5753	altı ne akşamlar
-0.9629	ne akşamlar beş
-0.5724	akşamlar beş başla
-1.5487	<s> sen su
-0.8405	sen su ne
-1.0416	su ne tamam
-0.4483	ne tamam </s>
-0.7371	bir ne yarın
-0.9138	ne yarın bugün
-0.6769	yarın bugün </s>
-1.4644	<s> hoşça kahve
-0.7417	hoşça kahve tamam
-0.8016	kahve tamam gün
-0.9082	tamam gün kahve
-0.8747	gün kahve lütfen
-0.4984	kahve lütfen </s>
-1.3563	<s> yedi çay
-1.0242	yedi çay biz
-0.7580	çay biz hayır
-0.5613	biz hayır yedi
-1.0778	hayır yedi günaydın
-0.8768	yedi günaydın sekiz
-0.5853	günaydın sekiz durdur
-0.5985	sekiz durdur </s>
-0.8796	üç sen ben
-0.5787	sen ben altı
-0.8682	ben altı ekmek
-0.7519	altı ekmek siz
-0.7578	ekmek siz siz
-0.5883	siz siz ben
-0.5789	beş biz başla
-0.8032	biz başla git
-0.9205	başla git durdur
-0.7576	git durdur nasılsın
-0.8855	nasılsın yok bugün
-1.5314	<s> kahve hoşça
-0.5934	kahve hoşça su
-0.2185	hoşça su </s>
-1.5307	<s> iki başla
-0.5881	iki başla iyi
-0.5764	başla iyi sen
-0.9705	iyi sen hayır
-0.5747	sen hayır altı
-0.9467	hayır altı yedi
-0.8775	altı yedi gel
-0.4673	yedi gel </s>
-1.5048	<s> siz iyi
-0.7667	siz iyi hoşça
-0.2967	iyi hoşça ne
-0.2943	hoşça ne git
-0.7538	nerede iyi evet
-0.5780	iyi evet </s>
-1.4430	<s> ne bugün
-0.7423	ne bugün git
-0.8687	bugün git su
-0.7582	git su günaydın
-1.4521	<s> kahve günaydın
-0.8700	kahve günaydın gel
-1.5812	<s> iyi ne
-0.2845	iyi ne zaman
-0.7669	ne zaman </s>
-1.4451	<s> günaydın iyi
-0.8716	günaydın iyi zaman
-0.8380	iyi zaman yardım
-1.0995	zaman yardım merhaba
-0.5843	yardım merhaba kahve
-0.7417	merhaba kahve tamam
-1.0421	yarın git bugün
-0.5787	git bugün akşamlar
-1.5009	<s> hayır siz
-0.8664	hayır siz biz
-0.7585	siz biz tamam
-0.5823	biz tamam üç
